{"learner":{"attributes":{"scikit_learn":"{\"_estimator_type\": \"regressor\"}"},"feature_names":["price","promo","weekday","month","store_id_enc","item_id_enc","year","quarter","week","day_of_year","is_weekend","is_month_start","is_month_end","month_sin","month_cos","weekday_sin","weekday_cos","week_sin","week_cos","price_scaled","lag_1d","lag_7d","lag_14d","lag_28d","lag_56d","roll_mean_7d","roll_std_7d","roll_max_7d","roll_min_7d","roll_mean_14d","roll_std_14d","roll_max_14d","roll_min_14d","roll_mean_28d","roll_std_28d","roll_max_28d","roll_min_28d","trend_short","trend_long","velocity","eoq","reorder_point","safety_stock","annual_holding_cost","annual_ordering_cost","total_annual_cost","price_deviation","price_pct_change","promo_x_weekend","promo_x_month","price_x_promo"],"feature_types":["float","int","int","int","int","int","int","int","int","int","int","int","int","float","float","float","float","float","float","float","float","float","float","float","float","float","float","float","float","float","float","float","float","float","float","float","float","float","float","float","float","float","float","float","float","float","float","float","int","int","float"],"gradient_booster":{"model":{"cats":{"enc":[],"feature_segments":[],"sorted_idx":[]},"gbtree_model_param":{"num_parallel_tree":"1","num_trees":"300"},"iteration_indptr":[0,1,2,3,4,5,6,7,8,9,10,11,12,13,14,15,16,17,18,19,20,21,22,23,24,25,26,27,28,29,30,31,32,33,34,35,36,37,38,39,40,41,42,43,44,45,46,47,48,49,50,51,52,53,54,55,56,57,58,59,60,61,62,63,64,65,66,67,68,69,70,71,72,73,74,75,76,77,78,79,80,81,82,83,84,85,86,87,88,89,90,91,92,93,94,95,96,97,98,99,100,101,102,103,104,105,106,107,108,109,110,111,112,113,114,115,116,117,118,119,120,121,122,123,124,125,126,127,128,129,130,131,132,133,134,135,136,137,138,139,140,141,142,143,144,145,146,147,148,149,150,151,152,153,154,155,156,157,158,159,160,161,162,163,164,165,166,167,168,169,170,171,172,173,174,175,176,177,178,179,180,181,182,183,184,185,186,187,188,189,190,191,192,193,194,195,196,197,198,199,200,201,202,203,204,205,206,207,208,209,210,211,212,213,214,215,216,217,218,219,220,221,222,223,224,225,226,227,228,229,230,231,232,233,234,235,236,237,238,239,240,241,242,243,244,245,246,247,248,249,250,251,252,253,254,255,256,257,258,259,260,261,262,263,264,265,266,267,268,269,270,271,272,273,274,275,276,277,278,279,280,281,282,283,284,285,286,287,288,289,290,291,292,293,294,295,296,297,298,299,300],"tree_info":[0,0,0,0,0,0,0,0,0,0,0,0,0,0,0,0,0,0,0,0,0,0,0,0,0,0,0,0,0,0,0,0,0,0,0,0,0,0,0,0,0,0,0,0,0,0,0,0,0,0,0,0,0,0,0,0,0,0,0,0,0,0,0,0,0,0,0,0,0,0,0,0,0,0,0,0,0,0,0,0,0,0,0,0,0,0,0,0,0,0,0,0,0,0,0,0,0,0,0,0,0,0,0,0,0,0,0,0,0,0,0,0,0,0,0,0,0,0,0,0,0,0,0,0,0,0,0,0,0,0,0,0,0,0,0,0,0,0,0,0,0,0,0,0,0,0,0,0,0,0,0,0,0,0,0,0,0,0,0,0,0,0,0,0,0,0,0,0,0,0,0,0,0,0,0,0,0,0,0,0,0,0,0,0,0,0,0,0,0,0,0,0,0,0,0,0,0,0,0,0,0,0,0,0,0,0,0,0,0,0,0,0,0,0,0,0,0,0,0,0,0,0,0,0,0,0,0,0,0,0,0,0,0,0,0,0,0,0,0,0,0,0,0,0,0,0,0,0,0,0,0,0,0,0,0,0,0,0,0,0,0,0,0,0,0,0,0,0,0,0,0,0,0,0,0,0,0,0,0,0,0,0,0,0,0,0,0,0,0,0,0,0,0,0,0,0,0,0,0,0],"trees":[{"base_weights":[5.815161E-3,-8.469114E0,1.3357252E1,-1.363135E1,-2.9756758E0,7.440574E0,2.2022182E1,-1.6631481E1,-1.1178928E1,-4.193802E0,7.970401E0,5.7307377E0,2.2807938E1,1.961839E1,4.352172E1,-1.7193756E1,-1.1551791E1,-1.1996069E1,-3.784729E0,-7.4891095E0,-1.9293259E0,3.03345E0,1.1352207E1,1.1027946E0,8.47011E0,1.5877186E1,2.6906754E1,1.407815E1,2.5927074E1,3.454918E1,5.2103058E1,-9.212231E-1,-7.775137E-1,-6.722084E-1,-4.5357892E-1,-7.189986E-1,-5.093224E-1,-3.6680192E-1,-5.3971082E-2,-4.523599E-1,-2.9560745E-1,-2.1328025E-1,-9.267117E-3,3.3666067E-2,2.6899654E-1,3.9116096E-1,6.996297E-1,-1.4940587E-1,1.3934062E-1,3.0699518E-1,5.2589685E-1,4.365376E-1,8.999487E-1,1.1692435E0,1.4987583E0,4.3437573E-1,8.282839E-1,1.0998266E0,1.5446407E0,1.3023084E0,1.8997138E0,2.3117673E0,2.952067E0],"categories":[],"categories_nodes":[],"categories_segments":[],"categories_sizes":[],"default_left":[0,0,0,0,0,0,0,0,0,0,0,0,0,0,0,0,0,0,0,0,0,0,0,0,0,0,0,0,0,0,0,0,0,0,0,0,0,0,0,0,0,0,0,0,0,0,0,0,0,0,0,0,0,0,0,0,0,0,0,0,0,0,0],"id":0,"left_children":[1,3,5,7,9,11,13,15,17,19,21,23,25,27,29,31,33,35,37,39,41,43,45,47,49,51,53,55,57,59,61,-1,-1,-1,-1,-1,-1,-1,-1,-1,-1,-1,-1,-1,-1,-1,-1,-1,-1,-1,-1,-1,-1,-1,-1,-1,-1,-1,-1,-1,-1,-1,-1],"loss_changes":[3.17881E8,4.8733624E7,5.5923824E7,6.518304E6,1.1100861E7,1.7032024E7,2.2873728E7,1.13792E6,2.945336E6,5.590394E6,1.3919125E6,7.394996E6,1.843276E6,1.3914112E7,3.425312E6,7.2536E5,1.8628E5,1.893532E6,4.660655E5,7.49672E5,1.809198E6,1.8770116E5,4.60921E5,1.4942138E6,1.748434E6,3.65595E5,4.40002E5,2.842172E6,3.632464E6,6.36498E5,9.23428E5,0E0,0E0,0E0,0E0,0E0,0E0,0E0,0E0,0E0,0E0,0E0,0E0,0E0,0E0,0E0,0E0,0E0,0E0,0E0,0E0,0E0,0E0,0E0,0E0,0E0,0E0,0E0,0E0,0E0,0E0,0E0,0E0],"parents":[2147483647,0,0,1,1,2,2,3,3,4,4,5,5,6,6,7,7,8,8,9,9,10,10,11,11,12,12,13,13,14,14,15,15,16,16,17,17,18,18,19,19,20,20,21,21,22,22,23,23,24,24,25,25,26,26,27,27,28,28,29,29,30,30],"right_children":[2,4,6,8,10,12,14,16,18,20,22,24,26,28,30,32,34,36,38,40,42,44,46,48,50,52,54,56,58,60,62,-1,-1,-1,-1,-1,-1,-1,-1,-1,-1,-1,-1,-1,-1,-1,-1,-1,-1,-1,-1,-1,-1,-1,-1,-1,-1,-1,-1,-1,-1,-1,-1],"split_conditions":[3.1E1,2.0285715E1,4.3E1,1.4428572E1,1E0,1E0,1E0,1E0,1E0,2.4E1,2.4E1,3.3E1,3.3E1,5E1,4.9E1,4.3388373E-1,4.3388373E-1,0E0,0E0,2.2E1,2.6E1,2.2E1,2.6E1,2.7E1,3.8E1,2.6E1,3.8E1,4.1E1,5.7E1,4E1,5.6E1,-9.212231E-1,-7.775137E-1,-6.722084E-1,-4.5357892E-1,-7.189986E-1,-5.093224E-1,-3.6680192E-1,-5.3971082E-2,-4.523599E-1,-2.9560745E-1,-2.1328025E-1,-9.267117E-3,3.3666067E-2,2.6899654E-1,3.9116096E-1,6.996297E-1,-1.4940587E-1,1.3934062E-1,3.0699518E-1,5.2589685E-1,4.365376E-1,8.999487E-1,1.1692435E0,1.4987583E0,4.3437573E-1,8.282839E-1,1.0998266E0,1.5446407E0,1.3023084E0,1.8997138E0,2.3117673E0,2.952067E0],"split_indices":[21,25,22,25,1,1,1,1,1,22,22,22,22,21,21,15,15,15,15,21,21,21,21,22,21,22,21,21,22,21,22,0,0,0,0,0,0,0,0,0,0,0,0,0,0,0,0,0,0,0,0,0,0,0,0,0,0,0,0,0,0,0,0],"split_type":[0,0,0,0,0,0,0,0,0,0,0,0,0,0,0,0,0,0,0,0,0,0,0,0,0,0,0,0,0,0,0,0,0,0,0,0,0,0,0,0,0,0,0,0,0,0,0,0,0,0,0,0,0,0,0,0,0,0,0,0,0,0,0],"sum_hessian":[2.809313E6,1.718489E6,1.090824E6,8.85951E5,8.32538E5,6.48209E5,4.42615E5,3.98476E5,4.87475E5,7.49168E5,8.337E4,5.83309E5,6.49E4,3.98106E5,4.4509E4,3.58762E5,3.9714E4,4.38964E5,4.8511E4,3.05132E5,4.44036E5,3.3893E4,4.9477E4,2.16891E5,3.66418E5,2.412E4,4.078E4,2.11964E5,1.86142E5,2.1761E4,2.2748E4,2.05137E5,1.53625E5,2.2524E4,1.719E4,1.89422E5,2.49542E5,2.0975E4,2.7536E4,1.53482E5,1.5165E5,1.89789E5,2.54247E5,1.6898E4,1.6995E4,2.1177E4,2.83E4,6.3247E4,1.53644E5,1.71394E5,1.95024E5,5.523E3,1.8597E4,1.8991E4,2.1789E4,6.6929E4,1.45035E5,1.03904E5,8.2238E4,6.277E3,1.5484E4,1.2329E4,1.0419E4],"tree_param":{"num_deleted":"0","num_feature":"51","num_nodes":"63","size_leaf_vector":"1"}},{"base_weights":[-9.107497E-3,-8.052569E0,1.2683451E1,-1.2975383E1,-2.7409108E0,7.7475495E0,2.1561972E1,-1.5867891E1,-1.0563653E1,-3.9030056E0,7.675767E0,6.092454E0,2.2646656E1,1.9244295E1,4.226342E1,-1.6398405E1,-1.1063453E1,-1.1339907E1,-3.5203335E0,-6.893568E0,-1.6745733E0,3.208225E0,1.099144E1,1.1160047E0,8.298704E0,1.4884651E1,2.5772987E1,1.2949911E1,2.3919846E1,3.3617474E1,4.9746853E1,-9.015655E-1,-7.576255E-1,-6.7645484E-1,-4.5809993E-1,-6.531182E-1,-4.499002E-1,-3.0418012E-1,3.608494E-4,-3.9113656E-1,-2.3552214E-1,-1.8867087E-1,-2.3493988E-2,8.828285E-2,3.1870404E-1,3.9217636E-1,6.4067405E-1,-1.6538653E-1,1.3395177E-1,2.8195044E-1,5.4074794E-1,4.2037493E-1,8.6360925E-1,1.0601683E0,1.4502102E0,3.2232186E-1,7.863899E-1,9.923086E-1,1.4285473E0,1.2044362E0,1.902572E0,2.1772773E0,2.8190968E0],"categories":[],"categories_nodes":[],"categories_segments":[],"categories_sizes":[],"default_left":[0,0,0,0,0,0,0,0,0,0,0,0,0,0,0,0,0,0,0,0,0,0,0,0,0,0,0,0,0,0,0,0,0,0,0,0,0,0,0,0,0,0,0,0,0,0,0,0,0,0,0,0,0,0,0,0,0,0,0,0,0,0,0],"id":1,"left_children":[1,3,5,7,9,11,13,15,17,19,21,23,25,27,29,31,33,35,37,39,41,43,45,47,49,51,53,55,57,59,61,-1,-1,-1,-1,-1,-1,-1,-1,-1,-1,-1,-1,-1,-1,-1,-1,-1,-1,-1,-1,-1,-1,-1,-1,-1,-1,-1,-1,-1,-1,-1,-1],"loss_changes":[2.8688346E8,4.497593E7,4.776792E7,6.227216E6,1.0015156E7,1.7275064E7,1.8685264E7,1.034352E6,2.661524E6,4.960254E6,1.2299695E6,6.922558E6,1.699272E6,1.0307448E7,2.535392E6,7.43352E5,1.891195E5,1.768632E6,4.3697562E5,6.4463E5,1.0783905E6,1.6154503E5,2.732705E5,1.3391272E6,2.923488E6,3.108905E5,7.3661E5,2.69685E6,3.80716E6,7.67868E5,8.62312E5,0E0,0E0,0E0,0E0,0E0,0E0,0E0,0E0,0E0,0E0,0E0,0E0,0E0,0E0,0E0,0E0,0E0,0E0,0E0,0E0,0E0,0E0,0E0,0E0,0E0,0E0,0E0,0E0,0E0,0E0,0E0,0E0],"parents":[2147483647,0,0,1,1,2,2,3,3,4,4,5,5,6,6,7,7,8,8,9,9,10,10,11,11,12,12,13,13,14,14,15,15,16,16,17,17,18,18,19,19,20,20,21,21,22,22,23,23,24,24,25,25,26,26,27,27,28,28,29,29,30,30],"right_children":[2,4,6,8,10,12,14,16,18,20,22,24,26,28,30,32,34,36,38,40,42,44,46,48,50,52,54,56,58,60,62,-1,-1,-1,-1,-1,-1,-1,-1,-1,-1,-1,-1,-1,-1,-1,-1,-1,-1,-1,-1,-1,-1,-1,-1,-1,-1,-1,-1,-1,-1,-1,-1],"split_conditions":[3.1E1,2.0357143E1,4.5E1,1.4535714E1,1E0,1E0,1E0,1E0,1E0,2.4E1,2.4E1,3.242857E1,3.207143E1,4.8E1,4.9E1,1.15E1,1.15E1,4.3388373E-1,4.3388373E-1,2.6142857E1,2.6E1,2.6E1,2.6E1,2.7E1,3.8E1,2.7E1,3.7E1,3.8E1,5.6E1,3.9E1,5.6E1,-9.015655E-1,-7.576255E-1,-6.7645484E-1,-4.5809993E-1,-6.531182E-1,-4.499002E-1,-3.0418012E-1,3.608494E-4,-3.9113656E-1,-2.3552214E-1,-1.8867087E-1,-2.3493988E-2,8.828285E-2,3.1870404E-1,3.9217636E-1,6.4067405E-1,-1.6538653E-1,1.3395177E-1,2.8195044E-1,5.4074794E-1,4.2037493E-1,8.6360925E-1,1.0601683E0,1.4502102E0,3.2232186E-1,7.863899E-1,9.923086E-1,1.4285473E0,1.2044362E0,1.902572E0,2.1772773E0,2.8190968E0],"split_indices":[21,29,21,33,1,1,1,1,1,21,21,29,29,23,23,33,33,15,15,29,23,29,23,23,21,23,21,23,21,23,21,0,0,0,0,0,0,0,0,0,0,0,0,0,0,0,0,0,0,0,0,0,0,0,0,0,0,0,0,0,0,0,0],"split_type":[0,0,0,0,0,0,0,0,0,0,0,0,0,0,0,0,0,0,0,0,0,0,0,0,0,0,0,0,0,0,0,0,0,0,0,0,0,0,0,0,0,0,0,0,0,0,0,0,0,0,0,0,0,0,0,0,0,0,0,0,0,0,0],"sum_hessian":[2.810043E6,1.720033E6,1.09001E6,8.92691E5,8.27342E5,7.0055E5,3.8946E5,4.05886E5,4.86805E5,7.44307E5,8.3035E4,6.3051E5,7.004E4,3.50249E5,3.9211E4,3.65522E5,4.0364E4,4.38479E5,4.8326E4,3.17807E5,4.265E5,3.5374E4,4.7661E4,1.93669E5,4.36841E5,2.0112E4,4.9928E4,1.49283E5,2.00966E5,1.8195E4,2.1016E4,1.58186E5,2.07336E5,1.7572E4,2.2792E4,2.52651E5,1.85828E5,2.7988E4,2.0338E4,2.22925E5,9.4882E4,1.5553E5,2.7097E5,2.4302E4,1.1072E4,1.7475E4,3.0186E4,5.0563E4,1.43106E5,2.12369E5,2.24472E5,5.418E3,1.4694E4,2.0684E4,2.9244E4,4.4681E4,1.04602E5,1.07136E5,9.383E4,5.78E3,1.2415E4,1.0867E4,1.0149E4],"tree_param":{"num_deleted":"0","num_feature":"51","num_nodes":"63","size_leaf_vector":"1"}},{"base_weights":[1.5914721E-3,-7.273718E0,1.2675738E1,-1.2143804E1,-2.0399387E0,8.181774E0,2.1045414E1,-1.4823179E1,-9.6281395E0,-3.161954E0,8.098321E0,6.5813885E0,2.2679941E1,1.8833109E1,4.093101E1,-1.5336468E1,-1.0157591E1,-1.0386307E1,-2.7612288E0,-5.9856796E0,-7.857855E-1,3.891592E0,1.1619061E1,1.2786018E0,8.476019E0,1.5183647E1,2.5651855E1,1.2047057E1,2.2863956E1,2.9545267E1,4.625272E1,-8.4812164E-1,-7.0299625E-1,-6.295647E-1,-4.1105828E-1,-4.3328258E-1,-6.3185567E-1,-2.6389137E-1,3.4485795E-2,-3.8469812E-1,-2.3427217E-1,-1.3912432E-1,2.1889415E-2,6.701265E-2,2.9092678E-1,4.3239745E-1,6.7207336E-1,-1.533538E-1,1.4074373E-1,3.027281E-1,5.5010885E-1,4.6363112E-1,8.934569E-1,1.095739E0,1.4721205E0,3.1079388E-1,7.395584E-1,8.9699936E-1,1.2986213E0,1.0837147E0,1.6971865E0,1.961818E0,2.5179384E0],"categories":[],"categories_nodes":[],"categories_segments":[],"categories_sizes":[],"default_left":[0,0,0,0,0,0,0,0,0,0,0,0,0,0,0,0,0,0,0,0,0,0,0,0,0,0,0,0,0,0,0,0,0,0,0,0,0,0,0,0,0,0,0,0,0,0,0,0,0,0,0,0,0,0,0,0,0,0,0,0,0,0,0],"id":2,"left_children":[1,3,5,7,9,11,13,15,17,19,21,23,25,27,29,31,33,35,37,39,41,43,45,47,49,51,53,55,57,59,61,-1,-1,-1,-1,-1,-1,-1,-1,-1,-1,-1,-1,-1,-1,-1,-1,-1,-1,-1,-1,-1,-1,-1,-1,-1,-1,-1,-1,-1,-1,-1,-1],"loss_changes":[2.5908653E8,4.550028E7,3.8541744E7,6.232576E6,9.78758E6,1.5469432E7,1.5747888E7,1.072152E6,2.482896E6,5.1978785E6,1.269774E6,6.032482E6,1.476196E6,8.811504E6,2.170116E6,8.37032E5,2.09055E5,1.663252E6,4.1183803E5,7.86269E5,1.0277788E6,1.9204194E5,2.52598E5,1.0552339E6,2.705964E6,2.98567E5,6.71668E5,1.920828E6,3.092856E6,3.94558E5,7.01576E5,0E0,0E0,0E0,0E0,0E0,0E0,0E0,0E0,0E0,0E0,0E0,0E0,0E0,0E0,0E0,0E0,0E0,0E0,0E0,0E0,0E0,0E0,0E0,0E0,0E0,0E0,0E0,0E0,0E0,0E0,0E0,0E0],"parents":[2147483647,0,0,1,1,2,2,3,3,4,4,5,5,6,6,7,7,8,8,9,9,10,10,11,11,12,12,13,13,14,14,15,15,16,16,17,17,18,18,19,19,20,20,21,21,22,22,23,23,24,24,25,25,26,26,27,27,28,28,29,29,30,30],"right_children":[2,4,6,8,10,12,14,16,18,20,22,24,26,28,30,32,34,36,38,40,42,44,46,48,50,52,54,56,58,60,62,-1,-1,-1,-1,-1,-1,-1,-1,-1,-1,-1,-1,-1,-1,-1,-1,-1,-1,-1,-1,-1,-1,-1,-1,-1,-1,-1,-1,-1,-1,-1,-1],"split_conditions":[3.2E1,2.0785715E1,4.6E1,1.5035714E1,8.19E0,8.19E0,8.19E0,8.19E0,8.19E0,2.5E1,2.5E1,3.2285713E1,3.275E1,4.532143E1,4.4107143E1,1.1821428E1,1.1821428E1,4E0,4.3388373E-1,2.1E1,2.7E1,2.1E1,2.7E1,2.675E1,3.9E1,2.7571428E1,3.9E1,3.8E1,4.3388373E-1,3.8E1,4.3388373E-1,-8.4812164E-1,-7.0299625E-1,-6.295647E-1,-4.1105828E-1,-4.3328258E-1,-6.3185567E-1,-2.6389137E-1,3.4485795E-2,-3.8469812E-1,-2.3427217E-1,-1.3912432E-1,2.1889415E-2,6.701265E-2,2.9092678E-1,4.3239745E-1,6.7207336E-1,-1.533538E-1,1.4074373E-1,3.027281E-1,5.5010885E-1,4.6363112E-1,8.934569E-1,1.095739E0,1.4721205E0,3.1079388E-1,7.395584E-1,8.9699936E-1,1.2986213E0,1.0837147E0,1.6971865E0,1.961818E0,2.5179384E0],"split_indices":[21,33,21,33,50,50,50,50,50,21,21,33,33,33,33,33,33,2,15,21,20,21,20,33,21,33,21,20,15,20,15,0,0,0,0,0,0,0,0,0,0,0,0,0,0,0,0,0,0,0,0,0,0,0,0,0,0,0,0,0,0,0,0],"split_type":[0,0,0,0,0,0,0,0,0,0,0,0,0,0,0,0,0,0,0,0,0,0,0,0,0,0,0,0,0,0,0,0,0,0,0,0,0,0,0,0,0,0,0,0,0,0,0,0,0,0,0,0,0,0,0,0,0,0,0,0,0,0,0],"sum_hessian":[2.809793E6,1.785098E6,1.024695E6,9.24676E5,8.60422E5,6.66715E5,3.5798E5,4.47766E5,4.7691E5,7.74687E5,8.5735E4,6.00437E5,6.6278E4,3.22143E5,3.5837E4,4.03385E5,4.4381E4,4.2949E5,4.742E4,3.54004E5,4.20683E5,3.9063E4,4.6672E4,1.58058E5,4.42379E5,1.8818E4,4.746E4,1.20046E5,2.02097E5,1.1417E4,2.442E4,1.77406E5,2.25979E5,1.9663E4,2.4718E4,2.43414E5,1.86076E5,2.7422E4,1.9998E4,1.52993E5,2.01011E5,1.59842E5,2.60841E5,1.6809E4,2.2254E4,1.7746E4,2.8926E4,4.1282E4,1.16776E5,2.25872E5,2.16507E5,5.88E3,1.2938E4,2.3902E4,2.3558E4,3.8416E4,8.163E4,7.8212E4,1.23885E5,4.095E3,7.322E3,9.019E3,1.5401E4],"tree_param":{"num_deleted":"0","num_feature":"51","num_nodes":"63","size_leaf_vector":"1"}},{"base_weights":[-1.4902705E-3,-7.289716E0,1.1469236E1,-1.1944347E1,-2.726054E0,6.3177767E0,1.9035603E1,-1.4677816E1,-1.0036298E1,-3.7626245E0,6.6158233E0,4.8504806E0,1.9481771E1,1.6974398E1,3.762093E1,-1.5139796E1,-1.05000925E1,-1.0721974E1,-3.8582582E0,-6.4376826E0,-1.6051081E0,2.5913105E0,9.823898E0,1.2442731E0,7.622675E0,1.4018305E1,2.363037E1,1.2258716E1,2.2340843E1,3.110114E1,4.6164078E1,-8.3409977E-1,-7.116384E-1,-6.408484E-1,-4.5581743E-1,-4.85344E-1,-6.614509E-1,-1.1676321E-1,-3.8200745E-1,-4.0786025E-1,-2.626582E-1,-1.8244067E-1,-9.810179E-5,-7.8718987E-4,2.17398E-1,3.3911335E-1,6.102125E-1,-1.3738993E-1,1.2875204E-1,2.8850394E-1,4.5392594E-1,4.032584E-1,8.0265236E-1,1.0415027E0,1.2910413E0,3.435472E-1,7.0998025E-1,9.3263435E-1,1.3510398E0,1.1275033E0,1.6964171E0,2.0270305E0,2.6332557E0],"categories":[],"categories_nodes":[],"categories_segments":[],"categories_sizes":[],"default_left":[0,0,0,0,0,0,0,0,0,0,0,0,0,0,0,0,0,0,0,0,0,0,0,0,0,0,0,0,0,0,0,0,0,0,0,0,0,0,0,0,0,0,0,0,0,0,0,0,0,0,0,0,0,0,0,0,0,0,0,0,0,0,0],"id":3,"left_children":[1,3,5,7,9,11,13,15,17,19,21,23,25,27,29,31,33,35,37,39,41,43,45,47,49,51,53,55,57,59,61,-1,-1,-1,-1,-1,-1,-1,-1,-1,-1,-1,-1,-1,-1,-1,-1,-1,-1,-1,-1,-1,-1,-1,-1,-1,-1,-1,-1,-1,-1,-1,-1],"loss_changes":[2.3498797E8,3.651015E7,4.2566E7,4.437792E6,8.403978E6,1.254942E7,1.6944848E7,6.74944E5,2.12274E6,4.508573E6,1.1190948E6,5.843879E6,1.47648E6,1.0076456E7,2.458256E6,4.40328E5,1.1155325E5,1.147748E6,2.8832912E5,7.10316E5,1.4167726E6,1.7608423E5,3.491245E5,1.3497219E6,8.91326E5,3.40539E5,2.2662E5,2.216248E6,3.214104E6,6.0481E5,6.96568E5,0E0,0E0,0E0,0E0,0E0,0E0,0E0,0E0,0E0,0E0,0E0,0E0,0E0,0E0,0E0,0E0,0E0,0E0,0E0,0E0,0E0,0E0,0E0,0E0,0E0,0E0,0E0,0E0,0E0,0E0,0E0,0E0],"parents":[2147483647,0,0,1,1,2,2,3,3,4,4,5,5,6,6,7,7,8,8,9,9,10,10,11,11,12,12,13,13,14,14,15,15,16,16,17,17,18,18,19,19,20,20,21,21,22,22,23,23,24,24,25,25,26,26,27,27,28,28,29,29,30,30],"right_children":[2,4,6,8,10,12,14,16,18,20,22,24,26,28,30,32,34,36,38,40,42,44,46,48,50,52,54,56,58,60,62,-1,-1,-1,-1,-1,-1,-1,-1,-1,-1,-1,-1,-1,-1,-1,-1,-1,-1,-1,-1,-1,-1,-1,-1,-1,-1,-1,-1,-1,-1,-1,-1],"split_conditions":[3.1E1,1.9821428E1,4.3E1,1.3857142E1,1E0,1E0,1E0,1E0,1E0,2.4E1,2.4E1,3.4E1,3.4E1,5E1,5.1E1,1.0785714E1,1.0785714E1,1E0,1E0,2.1E1,2.7E1,2.1E1,2.7E1,2.7E1,3.8E1,2.7E1,3.8E1,4E1,5.7E1,4E1,5.7E1,-8.3409977E-1,-7.116384E-1,-6.408484E-1,-4.5581743E-1,-4.85344E-1,-6.614509E-1,-1.1676321E-1,-3.8200745E-1,-4.0786025E-1,-2.626582E-1,-1.8244067E-1,-9.810179E-5,-7.8718987E-4,2.17398E-1,3.3911335E-1,6.102125E-1,-1.3738993E-1,1.2875204E-1,2.8850394E-1,4.5392594E-1,4.032584E-1,8.0265236E-1,1.0415027E0,1.2910413E0,3.435472E-1,7.0998025E-1,9.3263435E-1,1.3510398E0,1.1275033E0,1.6964171E0,2.0270305E0,2.6332557E0],"split_indices":[22,33,21,33,1,1,1,1,1,22,22,21,21,22,22,33,33,10,10,21,21,21,21,21,22,21,22,22,21,22,21,0,0,0,0,0,0,0,0,0,0,0,0,0,0,0,0,0,0,0,0,0,0,0,0,0,0,0,0,0,0,0,0],"split_type":[0,0,0,0,0,0,0,0,0,0,0,0,0,0,0,0,0,0,0,0,0,0,0,0,0,0,0,0,0,0,0,0,0,0,0,0,0,0,0,0,0,0,0,0,0,0,0,0,0,0,0,0,0,0,0,0,0,0,0,0,0,0,0],"sum_hessian":[2.810817E6,1.718759E6,1.092058E6,8.50898E5,8.67861E5,6.49712E5,4.42346E5,3.49787E5,5.01111E5,7.81182E5,8.6679E4,5.84557E5,6.5155E4,3.98187E5,4.4159E4,3.14956E5,3.4831E4,4.5105E5,5.0061E4,3.4876E5,4.32422E5,3.8448E4,4.8231E4,2.54062E5,3.30495E5,2.8123E4,3.7032E4,2.11946E5,1.86241E5,2.5048E4,1.9111E4,1.16632E5,1.98324E5,1.3021E4,2.181E4,3.21059E5,1.29991E5,3.569E4,1.4371E4,1.42252E5,2.06508E5,1.90091E5,2.42331E5,1.5478E4,2.297E4,2.1176E4,2.7055E4,6.3518E4,1.90544E5,1.45433E5,1.85062E5,7.165E3,2.0958E4,1.6258E4,2.0774E4,5.6132E4,1.55814E5,1.0416E5,8.2081E4,6.226E3,1.8822E4,1.0251E4,8.86E3],"tree_param":{"num_deleted":"0","num_feature":"51","num_nodes":"63","size_leaf_vector":"1"}},{"base_weights":[1.0210901E-3,-6.925601E0,1.0902258E1,-1.1274198E1,-2.568409E0,5.6567144E0,1.7647345E1,-1.3363708E1,-9.02665E0,-3.5527718E0,6.285479E0,4.2816715E0,1.8030308E1,1.5690326E1,3.5161358E1,-1.5028742E1,-1.2114869E1,-9.697287E0,-2.9782805E0,-6.532402E0,-1.7455033E0,2.4508433E0,9.4207325E0,7.135002E-1,6.5994205E0,1.2650523E1,2.14853E1,1.1106599E1,2.0609488E1,2.8809816E1,4.3019787E1,-8.16669E-1,-7.0125383E-1,-6.322392E-1,-3.6795482E-1,-5.61792E-1,-3.7934557E-1,-3.0040377E-1,-3.146931E-2,-3.6777148E-1,-2.2555006E-1,-1.7884098E-1,-9.352403E-3,1.9997589E-3,2.1287386E-1,3.0349153E-1,5.629663E-1,-1.3104369E-1,1.0427441E-1,2.4912916E-1,3.985449E-1,3.8363174E-1,7.3556054E-1,9.5146817E-1,1.1766837E0,3.0445382E-1,6.367026E-1,8.3402807E-1,1.2324637E0,1.0875233E0,1.5763183E0,1.8430529E0,2.4322698E0],"categories":[],"categories_nodes":[],"categories_segments":[],"categories_sizes":[],"default_left":[0,0,0,0,0,0,0,0,0,0,0,0,0,0,0,0,0,0,0,0,0,0,0,0,0,0,0,0,0,0,0,0,0,0,0,0,0,0,0,0,0,0,0,0,0,0,0,0,0,0,0,0,0,0,0,0,0,0,0,0,0,0,0],"id":4,"left_children":[1,3,5,7,9,11,13,15,17,19,21,23,25,27,29,31,33,35,37,39,41,43,45,47,49,51,53,55,57,59,61,-1,-1,-1,-1,-1,-1,-1,-1,-1,-1,-1,-1,-1,-1,-1,-1,-1,-1,-1,-1,-1,-1,-1,-1,-1,-1,-1,-1,-1,-1,-1,-1],"loss_changes":[2.1232192E8,3.2578392E7,3.86542E7,4.041232E6,7.48525E6,1.0456234E7,1.6380768E7,9.27096E5,1.681672E6,4.162136E6,1.03309925E6,4.574201E6,1.142166E6,9.693176E6,2.396388E6,2.50032E5,6.42112E5,1.211716E6,2.9450525E5,4.85441E5,1.3730905E6,1.6836686E5,2.912025E5,9.9637956E5,7.43475E5,2.4647625E5,1.8783E5,1.817128E6,3.290832E6,5.08812E5,7.42032E5,0E0,0E0,0E0,0E0,0E0,0E0,0E0,0E0,0E0,0E0,0E0,0E0,0E0,0E0,0E0,0E0,0E0,0E0,0E0,0E0,0E0,0E0,0E0,0E0,0E0,0E0,0E0,0E0,0E0,0E0,0E0,0E0],"parents":[2147483647,0,0,1,1,2,2,3,3,4,4,5,5,6,6,7,7,8,8,9,9,10,10,11,11,12,12,13,13,14,14,15,15,16,16,17,17,18,18,19,19,20,20,21,21,22,22,23,23,24,24,25,25,26,26,27,27,28,28,29,29,30,30],"right_children":[2,4,6,8,10,12,14,16,18,20,22,24,26,28,30,32,34,36,38,40,42,44,46,48,50,52,54,56,58,60,62,-1,-1,-1,-1,-1,-1,-1,-1,-1,-1,-1,-1,-1,-1,-1,-1,-1,-1,-1,-1,-1,-1,-1,-1,-1,-1,-1,-1,-1,-1,-1,-1],"split_conditions":[3.1E1,2E1,4.2E1,1.5E1,1E0,1E0,1E0,0E0,1E0,2.3E1,2.4E1,3.3E1,3.3E1,4.9E1,5E1,1.1714286E1,1E0,4.3388373E-1,0E0,2.5857143E1,2.7E1,2E1,2.6E1,2.7E1,3.7E1,2.7E1,3.7E1,3.9E1,5.5E1,4E1,5.5E1,-8.16669E-1,-7.0125383E-1,-6.322392E-1,-3.6795482E-1,-5.61792E-1,-3.7934557E-1,-3.0040377E-1,-3.146931E-2,-3.6777148E-1,-2.2555006E-1,-1.7884098E-1,-9.352403E-3,1.9997589E-3,2.1287386E-1,3.0349153E-1,5.629663E-1,-1.3104369E-1,1.0427441E-1,2.4912916E-1,3.985449E-1,3.8363174E-1,7.3556054E-1,9.5146817E-1,1.1766837E0,3.0445382E-1,6.367026E-1,8.3402807E-1,1.2324637E0,1.0875233E0,1.5763183E0,1.8430529E0,2.4322698E0],"split_indices":[22,25,21,25,1,1,1,15,1,22,22,21,21,22,22,25,1,15,15,25,21,22,21,21,21,21,21,22,21,22,21,0,0,0,0,0,0,0,0,0,0,0,0,0,0,0,0,0,0,0,0,0,0,0,0,0,0,0,0,0,0,0,0],"split_type":[0,0,0,0,0,0,0,0,0,0,0,0,0,0,0,0,0,0,0,0,0,0,0,0,0,0,0,0,0,0,0,0,0,0,0,0,0,0,0,0,0,0,0,0,0,0,0,0,0,0,0,0,0,0,0,0,0,0,0,0,0,0,0],"sum_hessian":[2.811883E6,1.719388E6,1.092495E6,8.60542E5,8.58846E5,6.14562E5,4.77933E5,4.45947E5,4.14595E5,7.72915E5,8.5931E4,5.53099E5,6.1463E4,4.29898E5,4.8035E4,1.91121E5,2.54826E5,3.73213E5,4.1382E4,2.91809E5,4.81106E5,3.8655E4,4.7276E4,2.17799E5,3.353E5,2.4038E4,3.7425E4,2.22538E5,2.0736E5,2.6567E4,2.1468E4,8.3094E4,1.08027E5,2.29277E5,2.5549E4,2.15847E5,1.57366E5,1.8071E4,2.3311E4,2.07373E5,8.4436E4,2.21189E5,2.59917E5,1.6559E4,2.2096E4,1.6751E4,3.0525E4,6.3492E4,1.54307E5,1.53887E5,1.81413E5,7.039E3,1.6999E4,1.7024E4,2.0401E4,5.4504E4,1.68034E5,1.05125E5,1.02235E5,7.385E3,1.9182E4,1.0252E4,1.1216E4],"tree_param":{"num_deleted":"0","num_feature":"51","num_nodes":"63","size_leaf_vector":"1"}},{"base_weights":[-1.1375095E-3,-6.691537E0,1.0241515E1,-1.0955116E1,-2.7281353E0,5.9403853E0,1.7540462E1,-1.3409703E1,-9.314672E0,-3.6485817E0,5.553478E0,4.605681E0,1.7912949E1,1.5654384E1,3.4423576E1,-1.2302454E1,-1.488741E1,-9.921243E0,-3.8198173E0,-1.4517077E0,-6.578849E0,8.82321E0,1.1724094E0,1.6507478E0,7.397245E0,1.3436554E1,2.2082605E1,1.180056E1,2.048508E1,2.753751E1,4.0384144E1,-6.3843936E-1,-4.0666953E-1,-7.619231E-1,-5.8502704E-1,-4.248356E-1,-5.909197E-1,-8.661345E-2,-3.31544E-1,-1.85492E-1,4.7061022E-2,-4.1957918E-1,-2.3727953E-1,2.576285E-1,6.089084E-1,-8.881681E-2,1.9120842E-1,-8.347235E-3,1.568122E-1,1.8573767E-1,4.0593982E-1,5.360194E-1,7.8430706E-1,8.1938106E-1,1.1584594E0,3.1218335E-1,6.806387E-1,8.1318676E-1,1.2214489E0,9.7802526E-1,1.5130755E0,1.7308832E0,2.29859E0],"categories":[],"categories_nodes":[],"categories_segments":[],"categories_sizes":[],"default_left":[0,0,0,0,0,0,0,0,0,0,0,0,0,0,0,0,0,0,0,0,0,0,0,0,0,0,0,0,0,0,0,0,0,0,0,0,0,0,0,0,0,0,0,0,0,0,0,0,0,0,0,0,0,0,0,0,0,0,0,0,0,0,0],"id":5,"left_children":[1,3,5,7,9,11,13,15,17,19,21,23,25,27,29,31,33,35,37,39,41,43,45,47,49,51,53,55,57,59,61,-1,-1,-1,-1,-1,-1,-1,-1,-1,-1,-1,-1,-1,-1,-1,-1,-1,-1,-1,-1,-1,-1,-1,-1,-1,-1,-1,-1,-1,-1,-1,-1],"loss_changes":[1.9250816E8,2.8714672E7,3.484521E7,3.296192E6,6.7129145E6,1.1160166E7,1.3104392E7,5.36384E5,1.635464E6,5.101974E6,1.2618288E6,5.183168E6,1.307152E6,6.89156E6,1.696296E6,3.64372E5,1.56968E5,1.194192E6,2.8626425E5,2.4475945E6,1.128492E6,6.2111025E5,2.943823E5,8.2421275E5,8.58496E5,2.062605E5,2.24028E5,2.073594E6,2.734568E6,4.16417E5,7.12588E5,0E0,0E0,0E0,0E0,0E0,0E0,0E0,0E0,0E0,0E0,0E0,0E0,0E0,0E0,0E0,0E0,0E0,0E0,0E0,0E0,0E0,0E0,0E0,0E0,0E0,0E0,0E0,0E0,0E0,0E0,0E0,0E0],"parents":[2147483647,0,0,1,1,2,2,3,3,4,4,5,5,6,6,7,7,8,8,9,9,10,10,11,11,12,12,13,13,14,14,15,15,16,16,17,17,18,18,19,19,20,20,21,21,22,22,23,23,24,24,25,25,26,26,27,27,28,28,29,29,30,30],"right_children":[2,4,6,8,10,12,14,16,18,20,22,24,26,28,30,32,34,36,38,40,42,44,46,48,50,52,54,56,58,60,62,-1,-1,-1,-1,-1,-1,-1,-1,-1,-1,-1,-1,-1,-1,-1,-1,-1,-1,-1,-1,-1,-1,-1,-1,-1,-1,-1,-1,-1,-1,-1,-1],"split_conditions":[3.0714285E1,1.9357143E1,4.4E1,1.3571428E1,1E0,1E0,1E0,4E0,1E0,4E0,4E0,3.5E1,3.5E1,5.1E1,3.4E1,1E0,1E0,4E0,4E0,2.5214285E1,2.5071428E1,2.4785715E1,2.4785715E1,3E1,3.3E1,3E1,3.3E1,3.9E1,5.1642857E1,3.9E1,5.4E1,-6.3843936E-1,-4.0666953E-1,-7.619231E-1,-5.8502704E-1,-4.248356E-1,-5.909197E-1,-8.661345E-2,-3.31544E-1,-1.85492E-1,4.7061022E-2,-4.1957918E-1,-2.3727953E-1,2.576285E-1,6.089084E-1,-8.881681E-2,1.9120842E-1,-8.347235E-3,1.568122E-1,1.8573767E-1,4.0593982E-1,5.360194E-1,7.8430706E-1,8.1938106E-1,1.1584594E0,3.1218335E-1,6.806387E-1,8.1318676E-1,1.2214489E0,9.7802526E-1,1.5130755E0,1.7308832E0,2.29859E0],"split_indices":[29,29,21,29,1,1,1,2,1,2,2,21,21,23,32,1,1,2,2,29,29,29,29,21,23,21,23,23,29,23,23,0,0,0,0,0,0,0,0,0,0,0,0,0,0,0,0,0,0,0,0,0,0,0,0,0,0,0,0,0,0,0,0],"split_type":[0,0,0,0,0,0,0,0,0,0,0,0,0,0,0,0,0,0,0,0,0,0,0,0,0,0,0,0,0,0,0,0,0,0,0,0,0,0,0,0,0,0,0,0,0,0,0,0,0,0,0,0,0,0,0,0,0,0,0,0,0,0,0],"sum_hessian":[2.809211E6,1.699267E6,1.109944E6,8.18632E5,8.80635E5,6.98395E5,4.11549E5,3.27936E5,4.90696E5,7.92549E5,8.8086E4,6.28348E5,7.0047E4,3.70195E5,4.1354E4,1.87472E5,1.40464E5,4.41913E5,4.8783E4,4.52959E5,3.3959E5,5.044E4,3.7646E4,3.05243E5,3.23105E5,3.3783E4,3.6264E4,2.0592E5,1.64275E5,1.919E4,2.2164E4,1.6861E5,1.8862E4,1.26523E5,1.3941E4,2.52398E5,1.89515E5,2.7995E4,2.0788E4,2.33043E5,2.19916E5,1.70749E5,1.68841E5,2.4088E4,2.6352E4,1.7825E4,1.9821E4,1.37273E5,1.6797E5,5.2938E4,2.70167E5,1.5307E4,1.8476E4,5.813E3,3.0451E4,5.0641E4,1.55279E5,7.9349E4,8.4926E4,4.887E3,1.4303E4,1.0911E4,1.1253E4],"tree_param":{"num_deleted":"0","num_feature":"51","num_nodes":"63","size_leaf_vector":"1"}},{"base_weights":[-2.3955955E-4,-6.2172456E0,9.973936E0,-1.0247357E1,-2.298042E0,5.7891097E0,1.6774302E1,-1.2205737E1,-8.218432E0,-3.1876204E0,5.7327547E0,4.516557E0,1.7222788E1,1.4971627E1,3.285897E1,-1.26290045E1,-8.385594E0,-8.821623E0,-2.7560258E0,-5.2273793E0,-7.355279E-1,2.6545095E0,9.397045E0,1.6173922E0,7.12181E0,1.2879307E1,2.1138702E1,1.0328307E1,1.857894E1,2.6605154E1,3.8814125E1,-7.058427E-1,-5.8219975E-1,-5.363576E-1,-3.479958E-1,-3.952205E-1,-5.558917E-1,-7.0027575E-2,-3.079259E-1,-1.9773917E-1,-3.4154105E-1,-1.4071594E-1,2.6485128E-2,2.2605999E-1,1.3284422E-2,3.129953E-1,5.642268E-1,-6.160929E-3,1.4934586E-1,2.3445582E-1,4.0320882E-1,5.117177E-1,7.503876E-1,8.502331E-1,1.1201289E0,3.2238826E-1,6.1363584E-1,7.7136195E-1,1.1211109E0,1.0141312E0,1.4748963E0,1.7096303E0,2.2401597E0],"categories":[],"categories_nodes":[],"categories_segments":[],"categories_sizes":[],"default_left":[0,0,0,0,0,0,0,0,0,0,0,0,0,0,0,0,0,0,0,0,0,0,0,0,0,0,0,0,0,0,0,0,0,0,0,0,0,0,0,0,0,0,0,0,0,0,0,0,0,0,0,0,0,0,0,0,0,0,0,0,0,0,0],"id":6,"left_children":[1,3,5,7,9,11,13,15,17,19,21,23,25,27,29,31,33,35,37,39,41,43,45,47,49,51,53,55,57,59,61,-1,-1,-1,-1,-1,-1,-1,-1,-1,-1,-1,-1,-1,-1,-1,-1,-1,-1,-1,-1,-1,-1,-1,-1,-1,-1,-1,-1,-1,-1,-1,-1],"loss_changes":[1.7425541E8,2.7342668E7,3.070712E7,3.391128E6,6.2698695E6,9.718844E6,1.1918216E7,7.0212E5,1.381164E6,3.951896E6,9.871865E5,4.53992E6,1.137576E6,6.191088E6,1.541732E6,5.72812E5,1.445475E5,7.94986E5,1.9225606E5,8.801E5,9.436834E5,2.1210453E5,2.3652775E5,6.781705E5,7.25725E5,1.784185E5,1.83427E5,1.219336E6,2.519392E6,3.69017E5,5.85726E5,0E0,0E0,0E0,0E0,0E0,0E0,0E0,0E0,0E0,0E0,0E0,0E0,0E0,0E0,0E0,0E0,0E0,0E0,0E0,0E0,0E0,0E0,0E0,0E0,0E0,0E0,0E0,0E0,0E0,0E0,0E0,0E0],"parents":[2147483647,0,0,1,1,2,2,3,3,4,4,5,5,6,6,7,7,8,8,9,9,10,10,11,11,12,12,13,13,14,14,15,15,16,16,17,17,18,18,19,19,20,20,21,21,22,22,23,23,24,24,25,25,26,26,27,27,28,28,29,29,30,30],"right_children":[2,4,6,8,10,12,14,16,18,20,22,24,26,28,30,32,34,36,38,40,42,44,46,48,50,52,54,56,58,60,62,-1,-1,-1,-1,-1,-1,-1,-1,-1,-1,-1,-1,-1,-1,-1,-1,-1,-1,-1,-1,-1,-1,-1,-1,-1,-1,-1,-1,-1,-1,-1,-1],"split_conditions":[3.1142857E1,1.9785715E1,4.4E1,1.4857142E1,1E0,1E0,1E0,1E0,1E0,2.6E1,2.6E1,3.5E1,3.5E1,3.5E1,3.6E1,1.1428572E1,1.1321428E1,1E0,1E0,1E0,2.6E1,1E0,2.6E1,3E1,3.5E1,3E1,3.4E1,3.9E1,5.6E1,3.9E1,5.7E1,-7.058427E-1,-5.8219975E-1,-5.363576E-1,-3.479958E-1,-3.952205E-1,-5.558917E-1,-7.0027575E-2,-3.079259E-1,-1.9773917E-1,-3.4154105E-1,-1.4071594E-1,2.6485128E-2,2.2605999E-1,1.3284422E-2,3.129953E-1,5.642268E-1,-6.160929E-3,1.4934586E-1,2.3445582E-1,4.0320882E-1,5.117177E-1,7.503876E-1,8.502331E-1,1.1201289E0,3.2238826E-1,6.1363584E-1,7.7136195E-1,1.1211109E0,1.0141312E0,1.4748963E0,1.7096303E0,2.2401597E0],"split_indices":[29,29,22,29,1,1,1,1,1,22,22,22,22,28,28,29,33,10,10,10,20,10,20,22,20,22,20,20,22,20,22,0,0,0,0,0,0,0,0,0,0,0,0,0,0,0,0,0,0,0,0,0,0,0,0,0,0,0,0,0,0,0,0],"split_type":[0,0,0,0,0,0,0,0,0,0,0,0,0,0,0,0,0,0,0,0,0,0,0,0,0,0,0,0,0,0,0,0,0,0,0,0,0,0,0,0,0,0,0,0,0,0,0,0,0,0,0,0,0,0,0,0,0,0,0,0,0,0,0],"sum_hessian":[2.810138E6,1.731116E6,1.079022E6,8.53481E5,8.77635E5,6.67968E5,4.11054E5,4.34288E5,4.19193E5,7.90114E5,8.7521E4,6.01071E5,6.6897E4,3.6963E5,4.1424E4,3.90967E5,4.3321E4,3.77506E5,4.1687E4,4.31321E5,3.58793E5,4.7565E4,3.9956E4,2.84489E5,3.16582E5,3.1719E4,3.5178E4,1.6161E5,2.0802E5,2.0208E4,2.1216E4,1.55728E5,2.35239E5,1.6392E4,2.6929E4,2.69757E5,1.07749E5,2.9812E4,1.1875E4,2.40471E5,1.9085E5,1.35751E5,2.23042E5,2.67E4,2.0865E4,1.5011E4,2.4945E4,1.25273E5,1.59216E5,8.8396E4,2.28186E5,1.4146E4,1.7573E4,8.24E3,2.6938E4,5.3948E4,1.07662E5,1.14296E5,9.3724E4,6.346E3,1.3862E4,1.1979E4,9.237E3],"tree_param":{"num_deleted":"0","num_feature":"51","num_nodes":"63","size_leaf_vector":"1"}},{"base_weights":[-5.2327816E-3,-6.1882334E0,9.039013E0,-1.0184878E1,-2.8697364E0,4.6332526E0,1.5030213E1,-1.2317332E1,-8.821184E0,-3.6807518E0,4.436433E0,3.463864E0,1.5104226E1,1.3359093E1,2.9968128E1,-1.1284914E1,-1.3692297E1,-9.348542E0,-4.041319E0,-1.7083608E0,-6.3065324E0,7.3819013E0,4.88395E-1,9.837763E-1,5.82521E0,1.0886059E1,1.8242613E1,9.218199E0,1.7027773E1,2.4786898E1,3.6583023E1,-5.8484197E-1,-3.7979046E-1,-6.9965035E-1,-5.476023E-1,-4.0350977E-1,-5.526199E-1,-1.0839701E-1,-3.2807425E-1,-1.972259E-1,2.2416318E-2,-4.026167E-1,-2.3134077E-1,1.9702427E-1,5.2696747E-1,-1.048602E-1,1.5563238E-1,1.807099E-1,5.8838185E-3,1.1097502E-1,3.1421956E-1,7.491797E-1,4.8720023E-1,6.949136E-1,9.551452E-1,2.1899508E-1,5.3192234E-1,6.8333584E-1,1.0533595E0,9.327467E-1,1.369073E0,1.5468887E0,2.1073077E0],"categories":[],"categories_nodes":[],"categories_segments":[],"categories_sizes":[],"default_left":[0,0,0,0,0,0,0,0,0,0,0,0,0,0,0,0,0,0,0,0,0,0,0,0,0,0,0,0,0,0,0,0,0,0,0,0,0,0,0,0,0,0,0,0,0,0,0,0,0,0,0,0,0,0,0,0,0,0,0,0,0,0,0],"id":7,"left_children":[1,3,5,7,9,11,13,15,17,19,21,23,25,27,29,31,33,35,37,39,41,43,45,47,49,51,53,55,57,59,61,-1,-1,-1,-1,-1,-1,-1,-1,-1,-1,-1,-1,-1,-1,-1,-1,-1,-1,-1,-1,-1,-1,-1,-1,-1,-1,-1,-1,-1,-1,-1,-1],"loss_changes":[1.571212E8,2.2133528E7,3.0114448E7,2.20144E6,5.4026635E6,8.049939E6,1.206808E7,4.19028E5,1.163948E6,4.25033E6,1.0593704E6,3.4633565E6,8.74121E5,6.60536E6,1.666212E6,2.56214E5,1.04196E5,9.05756E5,2.1662388E5,2.2601462E6,1.032274E6,5.6688575E5,2.6412975E5,6.571304E5,5.01563E5,1.31716E5,1.41262E5,1.403562E6,3.129836E6,4.33508E5,6.69608E5,0E0,0E0,0E0,0E0,0E0,0E0,0E0,0E0,0E0,0E0,0E0,0E0,0E0,0E0,0E0,0E0,0E0,0E0,0E0,0E0,0E0,0E0,0E0,0E0,0E0,0E0,0E0,0E0,0E0,0E0,0E0,0E0],"parents":[2147483647,0,0,1,1,2,2,3,3,4,4,5,5,6,6,7,7,8,8,9,9,10,10,11,11,12,12,13,13,14,14,15,15,16,16,17,17,18,18,19,19,20,20,21,21,22,22,23,23,24,24,25,25,26,26,27,27,28,28,29,29,30,30],"right_children":[2,4,6,8,10,12,14,16,18,20,22,24,26,28,30,32,34,36,38,40,42,44,46,48,50,52,54,56,58,60,62,-1,-1,-1,-1,-1,-1,-1,-1,-1,-1,-1,-1,-1,-1,-1,-1,-1,-1,-1,-1,-1,-1,-1,-1,-1,-1,-1,-1,-1,-1,-1,-1],"split_conditions":[3.0285715E1,1.8607143E1,4.2E1,1.3178572E1,1E0,1E0,1E0,4E0,1E0,4E0,4E0,3.4E1,3.3E1,4.5714287E1,5E1,1E0,1E0,4E0,4E0,2.4357143E1,2.4357143E1,2.4214285E1,2.45E1,4E0,3.1E1,4E0,3.2E1,3.8E1,5.4E1,3.9E1,5.1142857E1,-5.8484197E-1,-3.7979046E-1,-6.9965035E-1,-5.476023E-1,-4.0350977E-1,-5.526199E-1,-1.0839701E-1,-3.2807425E-1,-1.972259E-1,2.2416318E-2,-4.026167E-1,-2.3134077E-1,1.9702427E-1,5.2696747E-1,-1.048602E-1,1.5563238E-1,1.807099E-1,5.8838185E-3,1.1097502E-1,3.1421956E-1,7.491797E-1,4.8720023E-1,6.949136E-1,9.551452E-1,2.1899508E-1,5.3192234E-1,6.8333584E-1,1.0533595E0,9.327467E-1,1.369073E0,1.5468887E0,2.1073077E0],"split_indices":[29,33,22,33,1,1,1,2,1,2,2,22,22,25,23,1,1,2,2,29,29,29,29,2,23,2,23,23,23,25,29,0,0,0,0,0,0,0,0,0,0,0,0,0,0,0,0,0,0,0,0,0,0,0,0,0,0,0,0,0,0,0,0],"split_type":[0,0,0,0,0,0,0,0,0,0,0,0,0,0,0,0,0,0,0,0,0,0,0,0,0,0,0,0,0,0,0,0,0,0,0,0,0,0,0,0,0,0,0,0,0,0,0,0,0,0,0,0,0,0,0,0,0,0,0,0,0,0,0],"sum_hessian":[2.809719E6,1.668837E6,1.140882E6,7.57063E5,9.11774E5,6.57429E5,4.83453E5,2.95294E5,4.61769E5,8.20676E5,9.1098E4,5.91385E5,6.6044E4,4.34812E5,4.8641E4,1.68661E5,1.26633E5,4.15884E5,4.5885E4,4.68647E5,3.52029E5,5.2173E4,3.8925E4,2.88441E5,3.02944E5,2.8177E4,3.7867E4,2.04262E5,2.3055E5,2.7279E4,2.1362E4,1.51718E5,1.6943E4,1.14107E5,1.2526E4,2.37615E5,1.78269E5,2.6321E4,1.9564E4,2.30084E5,2.38563E5,1.72617E5,1.79412E5,2.4965E4,2.7208E4,1.9607E4,1.9318E4,7.1447E4,2.16994E5,3.4222E4,2.68722E5,6.139E3,2.2038E4,6.262E3,3.1605E4,4.6354E4,1.57908E5,1.25844E5,1.04706E5,8.113E3,1.9166E4,1.0606E4,1.0756E4],"tree_param":{"num_deleted":"0","num_feature":"51","num_nodes":"63","size_leaf_vector":"1"}},{"base_weights":[-2.094739E-3,-5.666474E0,8.928245E0,-9.181211E0,-2.048694E0,4.9144235E0,1.4820734E1,-1.0851604E1,-7.117554E0,-2.8521943E0,5.194241E0,3.779511E0,1.5091756E1,1.3215014E1,2.9197311E1,-1.19623785E1,-9.371693E0,-7.6762285E0,-2.1012359E0,-4.990441E0,-1.1851321E0,2.00869E0,7.6507277E0,9.779649E-1,5.9312615E0,1.0842266E1,1.8330687E1,9.337118E0,1.7629864E1,2.3379276E1,3.5755146E1,-6.638753E-1,-5.5711746E-1,-5.681378E-1,-4.1770783E-1,-4.516196E-1,-2.9109344E-1,-2.0465942E-1,3.48298E-2,-3.1861767E-1,-2.0472887E-1,-1.3851404E-1,1.6862573E-3,3.2482235E-4,1.6956836E-1,2.6720044E-1,4.711617E-1,-1.17274515E-1,1.0410376E-1,2.3199196E-1,3.7429628E-1,3.3158323E-1,6.3906884E-1,8.1731194E-1,1.035581E0,2.562215E-1,5.4248613E-1,7.5806314E-1,1.1016968E0,8.5434836E-1,1.2833315E0,1.6087601E0,2.103261E0],"categories":[],"categories_nodes":[],"categories_segments":[],"categories_sizes":[],"default_left":[0,0,0,0,0,0,0,0,0,0,0,0,0,0,0,0,0,0,0,0,0,0,0,0,0,0,0,0,0,0,0,0,0,0,0,0,0,0,0,0,0,0,0,0,0,0,0,0,0,0,0,0,0,0,0,0,0,0,0,0,0,0,0],"id":8,"left_children":[1,3,5,7,9,11,13,15,17,19,21,23,25,27,29,31,33,35,37,39,41,43,45,47,49,51,53,55,57,59,61,-1,-1,-1,-1,-1,-1,-1,-1,-1,-1,-1,-1,-1,-1,-1,-1,-1,-1,-1,-1,-1,-1,-1,-1,-1,-1,-1,-1,-1,-1,-1,-1],"loss_changes":[1.421124E8,2.1858416E7,2.5788376E7,3.005576E6,4.929883E6,7.491162E6,1.0198176E7,7.92028E5,1.093108E6,2.718034E6,6.6192375E5,3.5174775E6,8.95384E5,6.80352E6,1.692612E6,2.96708E5,4.18498E5,8.8256E5,2.1785166E5,4.135255E5,8.278245E5,1.0196244E5,1.952245E5,9.301362E5,6.62564E5,2.297225E5,1.74118E5,1.348096E6,2.020048E6,3.38107E5,4.6996E5,0E0,0E0,0E0,0E0,0E0,0E0,0E0,0E0,0E0,0E0,0E0,0E0,0E0,0E0,0E0,0E0,0E0,0E0,0E0,0E0,0E0,0E0,0E0,0E0,0E0,0E0,0E0,0E0,0E0,0E0,0E0,0E0],"parents":[2147483647,0,0,1,1,2,2,3,3,4,4,5,5,6,6,7,7,8,8,9,9,10,10,11,11,12,12,13,13,14,14,15,15,16,16,17,17,18,18,19,19,20,20,21,21,22,22,23,23,24,24,25,25,26,26,27,27,28,28,29,29,30,30],"right_children":[2,4,6,8,10,12,14,16,18,20,22,24,26,28,30,32,34,36,38,40,42,44,46,48,50,52,54,56,58,60,62,-1,-1,-1,-1,-1,-1,-1,-1,-1,-1,-1,-1,-1,-1,-1,-1,-1,-1,-1,-1,-1,-1,-1,-1,-1,-1,-1,-1,-1,-1,-1,-1],"split_conditions":[3.1E1,2.0107143E1,4.3E1,1.5428572E1,1E0,1E0,1E0,4.3388373E-1,1E0,2.4E1,2.4E1,3.4E1,3.4E1,5E1,5E1,1.1642858E1,1.1321428E1,4.3388373E-1,4.3388373E-1,2.1E1,2.7E1,2E1,2.7E1,2.7E1,6.123234E-17,2.8E1,6.123234E-17,4E1,5.9E1,4E1,5.9E1,-6.638753E-1,-5.5711746E-1,-5.681378E-1,-4.1770783E-1,-4.516196E-1,-2.9109344E-1,-2.0465942E-1,3.48298E-2,-3.1861767E-1,-2.0472887E-1,-1.3851404E-1,1.6862573E-3,3.2482235E-4,1.6956836E-1,2.6720044E-1,4.711617E-1,-1.17274515E-1,1.0410376E-1,2.3199196E-1,3.7429628E-1,3.3158323E-1,6.3906884E-1,8.1731194E-1,1.035581E0,2.562215E-1,5.4248613E-1,7.5806314E-1,1.1016968E0,8.5434836E-1,1.2833315E0,1.6087601E0,2.103261E0],"split_indices":[21,33,22,33,1,1,1,15,1,21,21,22,22,21,21,33,33,15,15,22,22,21,22,22,14,22,14,21,22,21,22,0,0,0,0,0,0,0,0,0,0,0,0,0,0,0,0,0,0,0,0,0,0,0,0,0,0,0,0,0,0,0,0],"split_type":[0,0,0,0,0,0,0,0,0,0,0,0,0,0,0,0,0,0,0,0,0,0,0,0,0,0,0,0,0,0,0,0,0,0,0,0,0,0,0,0,0,0,0,0,0,0,0,0,0,0,0,0,0,0,0,0,0,0,0,0,0,0,0],"sum_hessian":[2.809386E6,1.719031E6,1.090355E6,8.71932E5,8.47099E5,6.48568E5,4.41787E5,4.81879E5,3.90053E5,7.6251E5,8.4589E4,5.83501E5,6.5067E4,3.97403E5,4.4384E4,2.75266E5,2.06613E5,3.50965E5,3.9088E4,3.34046E5,4.28464E5,3.683E4,4.7759E4,2.53478E5,3.30023E5,2.8145E4,3.6922E4,2.11569E5,1.85834E5,2.3521E4,2.0863E4,1.05713E5,1.69553E5,6.9875E4,1.36738E5,2.02711E5,1.48254E5,2.2832E4,1.6256E4,1.3138E5,2.02666E5,1.86246E5,2.42218E5,1.5045E4,2.1785E4,2.0754E4,2.7005E4,6.321E4,1.90268E5,1.80276E5,1.49747E5,8.876E3,1.9269E4,2.0142E4,1.678E4,5.5897E4,1.55672E5,1.19087E5,6.6747E4,6.273E3,1.7248E4,1.3315E4,7.548E3],"tree_param":{"num_deleted":"0","num_feature":"51","num_nodes":"63","size_leaf_vector":"1"}},{"base_weights":[-2.8526194E-3,-5.6703234E0,8.061848E0,-9.323353E0,-2.7685645E0,4.8166037E0,1.4481739E1,-1.1251727E1,-8.166029E0,-3.4917312E0,3.7417033E0,3.7317293E0,1.4567287E1,1.2930043E1,2.8307156E1,-1.2188882E1,-1.0005135E1,-9.401527E0,-6.497799E0,-5.480684E0,-1.8094348E0,7.3849624E-1,6.2349753E0,3.782949E-1,5.4137087E0,9.552779E0,1.7106087E1,7.3681173E0,1.5679187E1,1.9976952E1,3.2422398E1,-6.242481E-1,-4.746523E-1,-5.2053636E-1,-3.1952503E-1,-4.9098918E-1,-2.804865E-1,-3.524494E-1,-7.468039E-2,-3.357807E-1,-2.277541E-1,-1.6961771E-1,-4.2157058E-2,-5.602863E-2,1.0789895E-1,1.7923218E-1,3.7310454E-1,-1.20678045E-1,8.313265E-2,1.676978E-1,3.578414E-1,2.9052415E-1,5.862061E-1,7.2113794E-1,1.0067109E0,1.82047E-1,4.82119E-1,6.681894E-1,9.970377E-1,6.706517E-1,1.14414E0,1.4385233E0,1.9070008E0],"categories":[],"categories_nodes":[],"categories_segments":[],"categories_sizes":[],"default_left":[0,0,0,0,0,0,0,0,0,0,0,0,0,0,0,0,0,0,0,0,0,0,0,0,0,0,0,0,0,0,0,0,0,0,0,0,0,0,0,0,0,0,0,0,0,0,0,0,0,0,0,0,0,0,0,0,0,0,0,0,0,0,0],"id":9,"left_children":[1,3,5,7,9,11,13,15,17,19,21,23,25,27,29,31,33,35,37,39,41,43,45,47,49,51,53,55,57,59,61,-1,-1,-1,-1,-1,-1,-1,-1,-1,-1,-1,-1,-1,-1,-1,-1,-1,-1,-1,-1,-1,-1,-1,-1,-1,-1,-1,-1,-1,-1,-1,-1],"loss_changes":[1.28431064E8,1.7492644E7,2.4161088E7,1.630292E6,4.329873E6,8.14845E6,8.353088E6,3.19972E5,9.40924E5,2.769599E6,6.884699E5,3.909833E6,9.81689E5,5.35304E6,1.346316E6,1.24722E5,1.72329E5,4.1592E5,5.35803E5,4.33526E5,6.8591375E5,1.1006896E5,1.6336025E5,8.302646E5,1.657443E6,2.1059325E5,4.15734E5,9.81612E5,2.311528E6,2.475565E5,5.48012E5,0E0,0E0,0E0,0E0,0E0,0E0,0E0,0E0,0E0,0E0,0E0,0E0,0E0,0E0,0E0,0E0,0E0,0E0,0E0,0E0,0E0,0E0,0E0,0E0,0E0,0E0,0E0,0E0,0E0,0E0,0E0,0E0],"parents":[2147483647,0,0,1,1,2,2,3,3,4,4,5,5,6,6,7,7,8,8,9,9,10,10,11,11,12,12,13,13,14,14,15,15,16,16,17,17,18,18,19,19,20,20,21,21,22,22,23,23,24,24,25,25,26,26,27,27,28,28,29,29,30,30],"right_children":[2,4,6,8,10,12,14,16,18,20,22,24,26,28,30,32,34,36,38,40,42,44,46,48,50,52,54,56,58,60,62,-1,-1,-1,-1,-1,-1,-1,-1,-1,-1,-1,-1,-1,-1,-1,-1,-1,-1,-1,-1,-1,-1,-1,-1,-1,-1,-1,-1,-1,-1,-1,-1],"split_conditions":[3E1,1.8321428E1,4.5E1,1.2892858E1,1E0,1E0,1E0,4.3388373E-1,4.3388373E-1,2.3E1,2.3E1,3.2E1,3.2E1,4.4E1,4.4E1,1E0,1E0,1E0,1E0,1.9E1,2.5E1,1.9E1,2.4E1,2.8E1,3.7E1,2.9E1,3.8E1,4E1,5.7E1,3.8E1,5.6E1,-6.242481E-1,-4.746523E-1,-5.2053636E-1,-3.1952503E-1,-4.9098918E-1,-2.804865E-1,-3.524494E-1,-7.468039E-2,-3.357807E-1,-2.277541E-1,-1.6961771E-1,-4.2157058E-2,-5.602863E-2,1.0789895E-1,1.7923218E-1,3.7310454E-1,-1.20678045E-1,8.313265E-2,1.676978E-1,3.578414E-1,2.9052415E-1,5.862061E-1,7.2113794E-1,1.0067109E0,1.82047E-1,4.82119E-1,6.681894E-1,9.970377E-1,6.706517E-1,1.14414E0,1.4385233E0,1.9070008E0],"split_indices":[21,33,21,33,49,49,49,15,15,21,21,20,20,20,20,49,49,49,49,21,20,21,20,23,21,23,21,23,23,23,23,0,0,0,0,0,0,0,0,0,0,0,0,0,0,0,0,0,0,0,0,0,0,0,0,0,0,0,0,0,0,0,0],"split_type":[0,0,0,0,0,0,0,0,0,0,0,0,0,0,0,0,0,0,0,0,0,0,0,0,0,0,0,0,0,0,0,0,0,0,0,0,0,0,0,0,0,0,0,0,0,0,0,0,0,0,0,0,0,0,0,0,0,0,0,0,0,0,0],"sum_hessian":[2.809909E6,1.650218E6,1.159691E6,7.30539E5,9.19679E5,7.70305E5,3.89386E5,2.73993E5,4.56546E5,8.27734E5,9.1945E4,6.93182E5,7.7123E4,3.50095E5,3.9291E4,1.56404E5,1.17589E5,2.62289E5,1.94257E5,3.79296E5,4.48438E5,4.1708E4,5.0237E4,2.31544E5,4.61638E5,2.5924E4,5.1199E4,1.15806E5,2.34289E5,1.2994E4,2.6297E4,1.40923E5,1.5481E4,1.05724E5,1.1865E4,2.3623E5,2.6059E4,1.74983E5,1.9274E4,1.62493E5,2.16803E5,1.69982E5,2.78456E5,1.8058E4,2.365E4,1.59E4,3.4337E4,7.2956E4,1.58588E5,2.11602E5,2.50036E5,9.52E3,1.6404E4,2.7148E4,2.4051E4,4.3886E4,7.192E4,1.51811E5,8.2478E4,3.989E3,9.005E3,1.6051E4,1.0246E4],"tree_param":{"num_deleted":"0","num_feature":"51","num_nodes":"63","size_leaf_vector":"1"}},{"base_weights":[-2.052152E-3,-5.0566773E0,8.231968E0,-7.9170947E0,-1.326915E0,4.9974804E0,1.4126956E1,-9.651501E0,-5.877803E0,-3.322719E0,1.3304124E0,3.9426427E0,1.4430535E1,1.2640709E1,2.7444843E1,-1.0657893E1,-8.311497E0,-7.3051963E0,-3.9781115E0,-3.9787405E0,2.6005104E0,4.5495906E-1,9.197452E0,1.6402624E0,6.3036504E0,1.094409E1,1.801051E1,9.310257E0,1.6348505E1,2.1224186E1,3.1881968E1,-5.958905E-1,-4.9278298E-1,-5.0359124E-1,-3.641076E-1,-3.8843337E-1,-1.5686905E-1,-2.2958627E-1,8.045831E-2,-2.6219353E-1,-1.2552947E-1,3.3578746E-2,2.419842E-1,-5.695678E-2,1.09953575E-1,3.43814E-1,5.949805E-1,3.8866777E-2,1.961781E-1,2.5372374E-1,3.9108437E-1,4.8118433E-1,7.187064E-1,8.0668145E-1,1.0149605E0,2.2206943E-1,5.374716E-1,6.1365956E-1,9.762956E-1,6.973869E-1,1.172414E0,1.3132356E0,1.7869915E0],"categories":[],"categories_nodes":[],"categories_segments":[],"categories_sizes":[],"default_left":[0,0,0,0,0,0,0,0,0,0,0,0,0,0,0,0,0,0,0,0,0,0,0,0,0,0,0,0,0,0,0,0,0,0,0,0,0,0,0,0,0,0,0,0,0,0,0,0,0,0,0,0,0,0,0,0,0,0,0,0,0,0,0],"id":10,"left_children":[1,3,5,7,9,11,13,15,17,19,21,23,25,27,29,31,33,35,37,39,41,43,45,47,49,51,53,55,57,59,61,-1,-1,-1,-1,-1,-1,-1,-1,-1,-1,-1,-1,-1,-1,-1,-1,-1,-1,-1,-1,-1,-1,-1,-1,-1,-1,-1,-1,-1,-1,-1,-1],"loss_changes":[1.16971944E8,1.8579E7,2.0383376E7,3.485932E6,4.0087432E6,6.868494E6,7.496424E6,7.18168E5,1.228283E6,1.6773515E6,2.2328615E6,3.374935E6,8.66336E5,4.207324E6,1.048828E6,3.07316E5,4.13865E5,4.99583E5,6.6629575E5,7.218145E5,1.8590466E5,8.111214E5,2.0354425E5,6.193338E5,5.71917E5,1.5917E5,1.46806E5,1.257722E6,2.08748E6,2.55906E5,4.79952E5,0E0,0E0,0E0,0E0,0E0,0E0,0E0,0E0,0E0,0E0,0E0,0E0,0E0,0E0,0E0,0E0,0E0,0E0,0E0,0E0,0E0,0E0,0E0,0E0,0E0,0E0,0E0,0E0,0E0,0E0,0E0,0E0],"parents":[2147483647,0,0,1,1,2,2,3,3,4,4,5,5,6,6,7,7,8,8,9,9,10,10,11,11,12,12,13,13,14,14,15,15,16,16,17,17,18,18,19,19,20,20,21,21,22,22,23,23,24,24,25,25,26,26,27,27,28,28,29,29,30,30],"right_children":[2,4,6,8,10,12,14,16,18,20,22,24,26,28,30,32,34,36,38,40,42,44,46,48,50,52,54,56,58,60,62,-1,-1,-1,-1,-1,-1,-1,-1,-1,-1,-1,-1,-1,-1,-1,-1,-1,-1,-1,-1,-1,-1,-1,-1,-1,-1,-1,-1,-1,-1,-1,-1],"split_conditions":[3.1285715E1,2.15E1,4.5E1,1.6E1,4.3388373E-1,1E0,1E0,4.3388373E-1,4.3388373E-1,1E0,1E0,3.6E1,3.6E1,3.7E1,3.5E1,1.1928572E1,1.1785714E1,1E0,1E0,2.6714285E1,2.6714285E1,2.6571428E1,2.6714285E1,0E0,-1.6081226E-16,0E0,-1.6081226E-16,4E1,4.3388373E-1,4.3388373E-1,4.3388373E-1,-5.958905E-1,-4.9278298E-1,-5.0359124E-1,-3.641076E-1,-3.8843337E-1,-1.5686905E-1,-2.2958627E-1,8.045831E-2,-2.6219353E-1,-1.2552947E-1,3.3578746E-2,2.419842E-1,-5.695678E-2,1.09953575E-1,3.43814E-1,5.949805E-1,3.8866777E-2,1.961781E-1,2.5372374E-1,3.9108437E-1,4.8118433E-1,7.187064E-1,8.0668145E-1,1.0149605E0,2.2206943E-1,5.374716E-1,6.1365956E-1,9.762956E-1,6.973869E-1,1.172414E0,1.3132356E0,1.7869915E0],"split_indices":[29,29,22,29,15,1,1,15,15,1,1,22,22,28,28,29,29,1,1,29,29,29,29,15,18,15,18,23,15,15,15,0,0,0,0,0,0,0,0,0,0,0,0,0,0,0,0,0,0,0,0,0,0,0,0,0,0,0,0,0,0,0,0],"split_type":[0,0,0,0,0,0,0,0,0,0,0,0,0,0,0,0,0,0,0,0,0,0,0,0,0,0,0,0,0,0,0,0,0,0,0,0,0,0,0,0,0,0,0,0,0,0,0,0,0,0,0,0,0,0,0,0,0,0,0,0,0,0,0],"sum_hessian":[2.81048E6,1.741453E6,1.069027E6,9.85588E5,7.55865E5,6.90282E5,3.78745E5,5.32606E5,4.52982E5,4.31662E5,3.24203E5,6.20857E5,6.9425E4,3.40723E5,3.8022E4,3.04162E5,2.28444E5,2.58641E5,1.94341E5,3.88621E5,4.3041E4,2.91739E5,3.2464E4,3.14332E5,3.06525E5,3.5174E4,3.4251E4,1.79497E5,1.61226E5,1.5832E4,2.219E4,1.18322E5,1.8584E5,8.4289E4,1.44155E5,2.32757E5,2.5884E4,1.7511E5,1.9231E4,2.08742E5,1.79879E5,2.3123E4,1.9918E4,1.52425E5,1.39314E5,1.7465E4,1.4999E4,2.2812E5,8.6212E4,1.6938E5,1.37145E5,2.54E4,9.774E3,1.8823E4,1.5428E4,4.0953E4,1.38544E5,7.0635E4,9.0591E4,3.708E3,1.2124E4,9.038E3,1.3152E4],"tree_param":{"num_deleted":"0","num_feature":"51","num_nodes":"63","size_leaf_vector":"1"}},{"base_weights":[-2.2517098E-3,-4.881392E0,7.6859264E0,-7.610262E0,-1.4580293E0,4.41227E0,1.2873328E1,-9.186905E0,-5.685952E0,-2.1636643E0,4.8706155E0,3.4304707E0,1.3232215E1,1.14902E1,2.5226814E1,-9.560158E0,-5.8242E0,-6.9980803E0,-3.8703165E0,-3.759886E0,-6.987778E-1,2.4827693E0,7.062506E0,1.0323166E0,5.322154E0,9.583857E0,1.6088629E1,8.1800995E0,1.5771919E1,1.8685022E1,2.995671E1,-5.390237E-1,-4.3215528E-1,-3.601919E-1,-1.9979127E-1,-3.7165686E-1,-1.5382604E-1,-2.2278579E-1,7.226295E-2,-2.1893497E-1,-1.0667356E-1,-8.99292E-2,2.1814095E-2,7.049824E-2,2.288264E-1,2.709392E-1,4.3885222E-1,-1.0485166E-1,9.506881E-2,1.7017773E-1,3.4456894E-1,2.4591942E-1,5.4885197E-1,6.608701E-1,9.215288E-1,3.3670273E-1,6.100933E-1,6.9950587E-1,1.1948955E0,8.2326144E-1,1.2041731E0,1.3466773E0,1.9269708E0],"categories":[],"categories_nodes":[],"categories_segments":[],"categories_sizes":[],"default_left":[0,0,0,0,0,0,0,0,0,0,0,0,0,0,0,0,0,0,0,0,0,0,0,0,0,0,0,0,0,0,0,0,0,0,0,0,0,0,0,0,0,0,0,0,0,0,0,0,0,0,0,0,0,0,0,0,0,0,0,0,0,0,0],"id":11,"left_children":[1,3,5,7,9,11,13,15,17,19,21,23,25,27,29,31,33,35,37,39,41,43,45,47,49,51,53,55,57,59,61,-1,-1,-1,-1,-1,-1,-1,-1,-1,-1,-1,-1,-1,-1,-1,-1,-1,-1,-1,-1,-1,-1,-1,-1,-1,-1,-1,-1,-1,-1,-1,-1],"loss_changes":[1.0538552E8,1.6055744E7,1.8522368E7,2.901456E6,3.4043805E6,5.790636E6,7.210368E6,6.5972E5,1.026025E6,1.6037398E6,4.002345E5,2.729789E6,6.9788E5,5.37878E6,1.314194E6,5.29384E5,1.3245288E5,4.2652E5,5.622375E5,3.303245E5,4.4646666E5,8.2208734E4,1.123205E5,7.2163944E5,1.012745E6,1.911455E5,2.52367E5,1.244747E6,2.395532E6,2.133035E5,6.38788E5,0E0,0E0,0E0,0E0,0E0,0E0,0E0,0E0,0E0,0E0,0E0,0E0,0E0,0E0,0E0,0E0,0E0,0E0,0E0,0E0,0E0,0E0,0E0,0E0,0E0,0E0,0E0,0E0,0E0,0E0,0E0,0E0],"parents":[2147483647,0,0,1,1,2,2,3,3,4,4,5,5,6,6,7,7,8,8,9,9,10,10,11,11,12,12,13,13,14,14,15,15,16,16,17,17,18,18,19,19,20,20,21,21,22,22,23,23,24,24,25,25,26,26,27,27,28,28,29,29,30,30],"right_children":[2,4,6,8,10,12,14,16,18,20,22,24,26,28,30,32,34,36,38,40,42,44,46,48,50,52,54,56,58,60,62,-1,-1,-1,-1,-1,-1,-1,-1,-1,-1,-1,-1,-1,-1,-1,-1,-1,-1,-1,-1,-1,-1,-1,-1,-1,-1,-1,-1,-1,-1,-1,-1],"split_conditions":[3.1E1,2.125E1,4.2857143E1,1.5928572E1,1E0,1E0,1E0,1E0,4.3388373E-1,2.5E1,2.5E1,3.5E1,3.5E1,4.3388373E-1,0E0,0E0,4.3388373E-1,1E0,1E0,0E0,-1.6081226E-16,2.7E1,-1.6081226E-16,2.7E1,3.9E1,2.7142857E1,3.9E1,5.3785713E1,5.6035713E1,5.317857E1,5.3785713E1,-5.390237E-1,-4.3215528E-1,-3.601919E-1,-1.9979127E-1,-3.7165686E-1,-1.5382604E-1,-2.2278579E-1,7.226295E-2,-2.1893497E-1,-1.0667356E-1,-8.99292E-2,2.1814095E-2,7.049824E-2,2.288264E-1,2.709392E-1,4.3885222E-1,-1.0485166E-1,9.506881E-2,1.7017773E-1,3.4456894E-1,2.4591942E-1,5.4885197E-1,6.608701E-1,9.215288E-1,3.3670273E-1,6.100933E-1,6.9950587E-1,1.1948955E0,8.2326144E-1,1.2041731E0,1.3466773E0,1.9269708E0],"split_indices":[22,33,25,33,1,1,1,1,15,22,22,23,23,15,15,15,15,1,1,15,18,25,18,25,22,25,22,33,33,33,33,0,0,0,0,0,0,0,0,0,0,0,0,0,0,0,0,0,0,0,0,0,0,0,0,0,0,0,0,0,0,0,0],"split_type":[0,0,0,0,0,0,0,0,0,0,0,0,0,0,0,0,0,0,0,0,0,0,0,0,0,0,0,0,0,0,0,0,0,0,0,0,0,0,0,0,0,0,0,0,0,0,0,0,0,0,0,0,0,0,0,0,0,0,0,0,0,0,0],"sum_hessian":[2.809402E6,1.718679E6,1.090723E6,9.56345E5,7.62334E5,6.68714E5,4.22009E5,5.25656E5,4.30689E5,6.85862E5,7.6472E4,6.01733E5,6.6981E4,3.79519E5,4.249E4,4.73137E5,5.2519E4,2.50009E5,1.8068E5,3.28217E5,3.57645E5,3.6601E4,3.9871E4,2.65346E5,3.36387E5,2.9415E4,3.7566E4,2.14047E5,1.65472E5,1.7832E4,2.4658E4,2.02998E5,2.70139E5,2.9931E4,2.2588E4,2.25042E5,2.4967E4,1.62756E5,1.7924E4,2.37755E5,9.0462E4,1.81643E5,1.76002E5,2.4202E4,1.2399E4,2.0358E4,1.9513E4,5.7673E4,2.07673E5,1.51347E5,1.8504E5,6.765E3,2.265E4,1.6879E4,2.0687E4,1.57441E5,5.6606E4,1.35716E5,2.9756E4,1.2639E4,5.193E3,1.8238E4,6.42E3],"tree_param":{"num_deleted":"0","num_feature":"51","num_nodes":"63","size_leaf_vector":"1"}},{"base_weights":[-4.1766562E-3,-5.008664E0,6.8044715E0,-8.027613E0,-2.530946E0,3.449649E0,1.1664267E1,-9.7255745E0,-7.0099015E0,-3.1457725E0,3.0051475E0,2.550793E0,1.1529444E1,1.0374276E1,2.3229536E1,-1.0029098E1,-6.98822E0,-7.4294047E0,-3.2077057E0,-2.093708E0,-5.7731686E0,4.5834246E0,-9.7484124E-1,4.355969E-1,4.246681E0,8.348437E0,1.4068004E1,7.4778786E0,1.3838671E1,1.9007364E1,2.8635088E1,-5.646256E-1,-4.7196332E-1,-4.379018E-1,-2.9989907E-1,-3.3722198E-1,-4.57504E-1,-1.10136904E-1,-2.863103E-1,-1.8530475E-1,-2.5528355E-2,-3.5115626E-1,-2.2404514E-1,1.0357622E-1,3.4058282E-1,-1.5021275E-1,4.0693622E-2,8.720213E-2,-2.974218E-2,1.5301928E-1,2.809976E-1,5.158454E-1,3.4064883E-1,6.131703E-1,8.088423E-1,2.0200701E-1,4.5096192E-1,5.2719873E-1,8.428082E-1,6.628895E-1,1.0505662E0,1.1579329E0,1.6348311E0],"categories":[],"categories_nodes":[],"categories_segments":[],"categories_sizes":[],"default_left":[0,0,0,0,0,0,0,0,0,0,0,0,0,0,0,0,0,0,0,0,0,0,0,0,0,0,0,0,0,0,0,0,0,0,0,0,0,0,0,0,0,0,0,0,0,0,0,0,0,0,0,0,0,0,0,0,0,0,0,0,0,0,0],"id":12,"left_children":[1,3,5,7,9,11,13,15,17,19,21,23,25,27,29,31,33,35,37,39,41,43,45,47,49,51,53,55,57,59,61,-1,-1,-1,-1,-1,-1,-1,-1,-1,-1,-1,-1,-1,-1,-1,-1,-1,-1,-1,-1,-1,-1,-1,-1,-1,-1,-1,-1,-1,-1,-1,-1],"loss_changes":[9.579173E7,1.2120208E7,1.9417284E7,1.262076E6,3.029128E6,5.1170715E6,7.256244E6,2.27346E5,7.28392E5,2.21406E6,5.587838E5,2.2744212E6,5.69473E5,4.39072E6,1.113386E6,1.83506E5,4.7833875E4,4.84692E5,1.1484719E5,1.4600062E6,3.699055E5,3.5650412E5,9.1697266E4,3.8041156E5,5.73273E5,9.45615E4,1.490875E5,1.262831E6,1.98074E6,3.15491E5,4.75282E5,0E0,0E0,0E0,0E0,0E0,0E0,0E0,0E0,0E0,0E0,0E0,0E0,0E0,0E0,0E0,0E0,0E0,0E0,0E0,0E0,0E0,0E0,0E0,0E0,0E0,0E0,0E0,0E0,0E0,0E0,0E0,0E0],"parents":[2147483647,0,0,1,1,2,2,3,3,4,4,5,5,6,6,7,7,8,8,9,9,10,10,11,11,12,12,13,13,14,14,15,15,16,16,17,17,18,18,19,19,20,20,21,21,22,22,23,23,24,24,25,25,26,26,27,27,28,28,29,29,30,30],"right_children":[2,4,6,8,10,12,14,16,18,20,22,24,26,28,30,32,34,36,38,40,42,44,46,48,50,52,54,56,58,60,62,-1,-1,-1,-1,-1,-1,-1,-1,-1,-1,-1,-1,-1,-1,-1,-1,-1,-1,-1,-1,-1,-1,-1,-1,-1,-1,-1,-1,-1,-1,-1,-1],"split_conditions":[2.9642857E1,1.8285715E1,4.2E1,1.2857142E1,1E0,1E0,1E0,1E0,1E0,1E0,1E0,3.3E1,3.3E1,4.742857E1,4.7857143E1,1.0035714E1,1.0214286E1,1E0,1E0,2.3928572E1,2.4071428E1,2.3642857E1,2.3642857E1,1E0,-1.6081226E-16,1E0,-1.6081226E-16,3.8142857E1,5.4E1,3.742857E1,5.3E1,-5.646256E-1,-4.7196332E-1,-4.379018E-1,-2.9989907E-1,-3.3722198E-1,-4.57504E-1,-1.10136904E-1,-2.863103E-1,-1.8530475E-1,-2.5528355E-2,-3.5115626E-1,-2.2404514E-1,1.0357622E-1,3.4058282E-1,-1.5021275E-1,4.0693622E-2,8.720213E-2,-2.974218E-2,1.5301928E-1,2.809976E-1,5.158454E-1,3.4064883E-1,6.131703E-1,8.088423E-1,2.0200701E-1,4.5096192E-1,5.2719873E-1,8.428082E-1,6.628895E-1,1.0505662E0,1.1579329E0,1.6348311E0],"split_indices":[29,29,22,29,49,49,49,49,49,10,10,22,22,25,25,33,33,10,10,29,29,29,29,10,18,10,18,25,22,25,22,0,0,0,0,0,0,0,0,0,0,0,0,0,0,0,0,0,0,0,0,0,0,0,0,0,0,0,0,0,0,0,0],"split_type":[0,0,0,0,0,0,0,0,0,0,0,0,0,0,0,0,0,0,0,0,0,0,0,0,0,0,0,0,0,0,0,0,0,0,0,0,0,0,0,0,0,0,0,0,0,0,0,0,0,0,0,0,0,0,0,0,0,0,0,0,0,0,0],"sum_hessian":[2.8113E6,1.620328E6,1.190972E6,7.3039E5,8.89938E5,7.04584E5,4.86388E5,2.73714E5,4.56676E5,8.00983E5,8.8955E4,6.34049E5,7.0535E4,4.37582E5,4.8806E4,2.46391E5,2.7323E4,4.11296E5,4.538E4,5.7196E5,2.29023E5,6.3696E4,2.5259E4,2.82145E5,3.51904E5,3.1308E4,3.9227E4,2.3833E5,1.99252E5,2.7405E4,2.1401E4,7.8413E4,1.67978E5,9.8E3,1.7523E4,2.9419E5,1.17106E5,3.2438E4,1.2942E4,2.83362E5,2.88598E5,1.16415E5,1.12608E5,2.9943E4,3.3753E4,1.1833E4,1.3426E4,1.24304E5,1.57841E5,1.88807E5,1.63097E5,1.3717E4,1.7591E4,2.1142E4,1.8085E4,7.378E4,1.6455E5,9.5253E4,1.03999E5,7.085E3,2.032E4,9.116E3,1.2285E4],"tree_param":{"num_deleted":"0","num_feature":"51","num_nodes":"63","size_leaf_vector":"1"}},{"base_weights":[2.9802779E-3,-3.9922562E0,7.7497525E0,-6.6748652E0,-6.5405643E-1,5.0093746E0,1.2626221E1,-8.22161E0,-4.8435116E0,1.176766E0,-3.0988288E0,4.072315E0,1.3401492E1,1.1323782E1,2.4250689E1,-9.633026E0,-7.4503546E0,-3.5641747E0,-6.550936E0,4.2194265E-1,7.9410114E0,-3.6464744E0,1.8403672E0,2.0456386E0,6.0630403E0,1.0307426E1,1.6431395E1,8.599092E0,1.4831099E1,2.0536837E1,2.9983347E1,-4.449625E-1,-5.3040785E-1,-3.2299796E-1,-4.3849453E-1,-2.0451765E-1,5.861629E-2,-3.4647414E-1,-1.5606111E-1,-5.1589616E-2,1.0020452E-1,2.8668717E-1,5.135435E-1,-2.418629E-1,-1.2410009E-1,-2.6093164E-4,1.781346E-1,2.1012871E-1,6.622142E-2,2.3470758E-1,3.6638388E-1,6.748844E-1,4.6165457E-1,7.3326164E-1,9.295891E-1,4.7609708E-1,1.11052394E-1,8.398285E-1,4.815351E-1,6.644013E-1,1.1217817E0,1.6478541E0,1.1053708E0],"categories":[],"categories_nodes":[],"categories_segments":[],"categories_sizes":[],"default_left":[0,0,0,0,0,0,0,0,0,0,0,0,0,0,0,0,0,0,0,0,0,0,0,0,0,0,0,0,0,0,0,0,0,0,0,0,0,0,0,0,0,0,0,0,0,0,0,0,0,0,0,0,0,0,0,0,0,0,0,0,0,0,0],"id":13,"left_children":[1,3,5,7,9,11,13,15,17,19,21,23,25,27,29,31,33,35,37,39,41,43,45,47,49,51,53,55,57,59,61,-1,-1,-1,-1,-1,-1,-1,-1,-1,-1,-1,-1,-1,-1,-1,-1,-1,-1,-1,-1,-1,-1,-1,-1,-1,-1,-1,-1,-1,-1,-1,-1],"loss_changes":[8.699479E7,1.6606496E7,1.2780384E7,2.9124E6,3.6982522E6,4.81499E6,5.209208E6,6.06684E5,1.028326E6,2.4122268E6,9.5701925E5,2.222205E6,5.76384E5,2.95678E6,7.37452E5,1.40832E5,4.70994E5,6.7073725E5,2.61781E5,9.7756025E5,2.4384525E5,4.416175E5,1.1225256E5,4.2457312E5,4.80985E5,1.04175E5,1.18282E5,1.024962E6,1.382556E6,2.89311E5,3.18429E5,0E0,0E0,0E0,0E0,0E0,0E0,0E0,0E0,0E0,0E0,0E0,0E0,0E0,0E0,0E0,0E0,0E0,0E0,0E0,0E0,0E0,0E0,0E0,0E0,0E0,0E0,0E0,0E0,0E0,0E0,0E0,0E0],"parents":[2147483647,0,0,1,1,2,2,3,3,4,4,5,5,6,6,7,7,8,8,9,9,10,10,11,11,12,12,13,13,14,14,15,15,16,16,17,17,18,18,19,19,20,20,21,21,22,22,23,23,24,24,25,25,26,26,27,27,28,28,29,29,30,30],"right_children":[2,4,6,8,10,12,14,16,18,20,22,24,26,28,30,32,34,36,38,40,42,44,46,48,50,52,54,56,58,60,62,-1,-1,-1,-1,-1,-1,-1,-1,-1,-1,-1,-1,-1,-1,-1,-1,-1,-1,-1,-1,-1,-1,-1,-1,-1,-1,-1,-1,-1,-1,-1,-1],"split_conditions":[3.292857E1,2.2071428E1,4.6E1,1.6285715E1,4E0,1E0,1E0,1.1785714E1,4E0,1E0,1E0,3.7E1,3.7E1,4.9857143E1,3.9E1,4E0,4E0,1E0,1E0,2.7571428E1,2.7428572E1,2.7285715E1,2.7142857E1,4E0,-2.3931566E-1,4E0,-1.6081226E-16,4E0,4E0,4.1E1,4E0,-4.449625E-1,-5.3040785E-1,-3.2299796E-1,-4.3849453E-1,-2.0451765E-1,5.861629E-2,-3.4647414E-1,-1.5606111E-1,-5.1589616E-2,1.0020452E-1,2.8668717E-1,5.135435E-1,-2.418629E-1,-1.2410009E-1,-2.6093164E-4,1.781346E-1,2.1012871E-1,6.622142E-2,2.3470758E-1,3.6638388E-1,6.748844E-1,4.6165457E-1,7.3326164E-1,9.295891E-1,4.7609708E-1,1.11052394E-1,8.398285E-1,4.815351E-1,6.644013E-1,1.1217817E0,1.6478541E0,1.1053708E0],"split_indices":[29,29,22,29,2,1,1,29,2,1,1,22,22,25,28,2,2,1,1,29,29,29,29,2,18,2,18,2,2,23,2,0,0,0,0,0,0,0,0,0,0,0,0,0,0,0,0,0,0,0,0,0,0,0,0,0,0,0,0,0,0,0,0],"split_type":[0,0,0,0,0,0,0,0,0,0,0,0,0,0,0,0,0,0,0,0,0,0,0,0,0,0,0,0,0,0,0,0,0,0,0,0,0,0,0,0,0,0,0,0,0,0,0,0,0,0,0,0,0,0,0,0,0,0,0,0,0,0,0],"sum_hessian":[2.810798E6,1.85442E6,9.56378E5,1.028171E6,8.26249E5,6.12295E5,3.44083E5,5.57396E5,4.70775E5,4.72447E5,3.53802E5,5.50795E5,6.15E4,3.09417E5,3.4666E4,1.96954E5,3.60442E5,2.69127E5,2.01648E5,4.2502E5,4.7427E4,3.18489E5,3.5313E4,2.72934E5,2.77861E5,3.043E4,3.107E4,1.74139E5,1.35278E5,2.104E4,1.3626E4,1.12391E5,8.4563E4,2.05904E5,1.54538E5,2.42219E5,2.6908E4,1.81603E5,2.0045E4,2.21499E5,2.03521E5,2.4356E4,2.3071E4,1.57464E5,1.61025E5,1.7047E4,1.8266E4,6.8391E4,2.04543E5,1.33433E5,1.44428E5,7.663E3,2.2767E4,1.7099E4,1.3971E4,1.52127E5,2.2012E4,9.8172E4,3.7106E4,4.369E3,1.6671E4,9.889E3,3.737E3],"tree_param":{"num_deleted":"0","num_feature":"51","num_nodes":"63","size_leaf_vector":"1"}},{"base_weights":[1.888887E-3,-3.8931527E0,7.168835E0,-6.374124E0,-7.5463724E-1,4.300124E0,1.140527E1,-7.815321E0,-4.6288733E0,-1.3809692E0,4.876422E0,3.429171E0,1.207777E1,1.0204623E1,2.2192657E1,-8.1523695E0,-4.7687144E0,-5.0676675E0,-6.545346E-1,-3.155688E-1,-4.0572457E0,6.486877E0,8.561234E-1,1.3128191E0,4.8674245E0,8.827822E0,1.4263576E1,7.5158753E0,1.3416514E1,1.7853514E1,2.6682451E1,-4.891835E-1,-3.8015357E-1,-3.511828E-1,-1.9055597E-1,-2.1515019E-1,-3.4910366E-1,2.5336701E-2,-1.7828116E-1,-8.292808E-2,5.3279467E-2,-2.5765294E-1,-1.4934234E-1,2.2380388E-1,4.2882186E-1,-3.7596136E-2,1.2616386E-1,-3.2020006E-2,1.206576E-1,1.5262578E-1,3.5177502E-1,2.9420644E-1,5.2563494E-1,5.7474774E-1,8.718897E-1,2.4632649E-1,4.4602463E-1,5.611203E-1,8.219447E-1,7.1568334E-1,9.991073E-1,1.1858902E0,1.5473433E0],"categories":[],"categories_nodes":[],"categories_segments":[],"categories_sizes":[],"default_left":[0,0,0,0,0,0,0,0,0,0,0,0,0,0,0,0,0,0,0,0,0,0,0,0,0,0,0,0,0,0,0,0,0,0,0,0,0,0,0,0,0,0,0,0,0,0,0,0,0,0,0,0,0,0,0,0,0,0,0,0,0,0,0],"id":14,"left_children":[1,3,5,7,9,11,13,15,17,19,21,23,25,27,29,31,33,35,37,39,41,43,45,47,49,51,53,55,57,59,61,-1,-1,-1,-1,-1,-1,-1,-1,-1,-1,-1,-1,-1,-1,-1,-1,-1,-1,-1,-1,-1,-1,-1,-1,-1,-1,-1,-1,-1,-1,-1,-1],"loss_changes":[7.84743E7,1.4181698E7,1.2029448E7,2.558496E6,2.8359828E6,3.997857E6,5.1759E6,5.72056E5,8.02327E5,2.0632354E6,5.2110188E5,1.6155265E6,4.22079E5,3.105564E6,7.79284E5,4.49426E5,1.198135E5,6.06499E5,1.5464872E5,9.600383E5,2.4166025E5,2.4141575E5,6.171797E4,4.6154672E5,1.243398E6,1.184865E5,3.12071E5,7.11921E5,1.086488E6,1.53105E5,2.4793E5,0E0,0E0,0E0,0E0,0E0,0E0,0E0,0E0,0E0,0E0,0E0,0E0,0E0,0E0,0E0,0E0,0E0,0E0,0E0,0E0,0E0,0E0,0E0,0E0,0E0,0E0,0E0,0E0,0E0,0E0,0E0,0E0],"parents":[2147483647,0,0,1,1,2,2,3,3,4,4,5,5,6,6,7,7,8,8,9,9,10,10,11,11,12,12,13,13,14,14,15,15,16,16,17,17,18,18,19,19,20,20,21,21,22,22,23,23,24,24,25,25,26,26,27,27,28,28,29,29,30,30],"right_children":[2,4,6,8,10,12,14,16,18,20,22,24,26,28,30,32,34,36,38,40,42,44,46,48,50,52,54,56,58,60,62,-1,-1,-1,-1,-1,-1,-1,-1,-1,-1,-1,-1,-1,-1,-1,-1,-1,-1,-1,-1,-1,-1,-1,-1,-1,-1,-1,-1,-1,-1,-1,-1],"split_conditions":[3.242857E1,2.1928572E1,4.4E1,1.6285715E1,1E0,1E0,1E0,1E0,1E0,1E0,1E0,3.4E1,3.4E1,4.85E1,4.7714287E1,1.0964286E1,1.1285714E1,1E0,1E0,2.7142857E1,2.7E1,2.7142857E1,2.7142857E1,-1.6081226E-16,6.123234E-17,-1.6081226E-16,-1.6081226E-16,4.0285713E1,5.8E1,4.0285713E1,5.8E1,-4.891835E-1,-3.8015357E-1,-3.511828E-1,-1.9055597E-1,-2.1515019E-1,-3.4910366E-1,2.5336701E-2,-1.7828116E-1,-8.292808E-2,5.3279467E-2,-2.5765294E-1,-1.4934234E-1,2.2380388E-1,4.2882186E-1,-3.7596136E-2,1.2616386E-1,-3.2020006E-2,1.206576E-1,1.5262578E-1,3.5177502E-1,2.9420644E-1,5.2563494E-1,5.7474774E-1,8.718897E-1,2.4632649E-1,4.4602463E-1,5.611203E-1,8.219447E-1,7.1568334E-1,9.991073E-1,1.1858902E0,1.5473433E0],"split_indices":[29,29,23,33,1,1,1,1,1,10,10,23,23,29,29,33,29,10,10,29,29,29,29,18,14,18,18,29,23,29,23,0,0,0,0,0,0,0,0,0,0,0,0,0,0,0,0,0,0,0,0,0,0,0,0,0,0,0,0,0,0,0,0],"split_type":[0,0,0,0,0,0,0,0,0,0,0,0,0,0,0,0,0,0,0,0,0,0,0,0,0,0,0,0,0,0,0,0,0,0,0,0,0,0,0,0,0,0,0,0,0,0,0,0,0,0,0,0,0,0,0,0,0,0,0,0,0,0,0],"sum_hessian":[2.81113E6,1.821302E6,9.89828E5,1.017207E6,8.04095E5,5.90185E5,3.99643E5,5.57133E5,4.60074E5,7.2361E5,8.0485E4,5.30752E5,5.9433E4,3.59619E5,4.0024E4,5.01635E5,5.5498E4,4.14329E5,4.5745E4,5.17571E5,2.06039E5,5.7465E4,2.302E4,2.14752E5,3.16E5,2.3901E4,3.5532E4,1.95753E5,1.63866E5,2.0356E4,1.9668E4,1.26359E5,3.75276E5,1.6541E4,3.8957E4,2.96073E5,1.18256E5,3.2701E4,1.3044E4,2.62411E5,2.5516E5,1.01809E5,1.0423E5,2.9286E4,2.8179E4,1.1718E4,1.1302E4,7.7385E4,1.37367E5,1.72011E5,1.43989E5,8.702E3,1.5199E4,1.8981E4,1.6551E4,6.8845E4,1.26908E5,9.4945E4,6.8921E4,7.647E3,1.2709E4,1.1606E4,8.062E3],"tree_param":{"num_deleted":"0","num_feature":"51","num_nodes":"63","size_leaf_vector":"1"}},{"base_weights":[-5.0921406E-4,-3.8088448E0,6.639372E0,-6.101865E0,-9.004298E-1,3.251844E0,1.0073246E1,-7.4575877E0,-4.4759216E0,-1.4880472E0,4.374833E0,2.4702892E0,1.0295468E1,8.959265E0,2.0012774E1,-8.331527E0,-6.2968993E0,-5.6605306E0,-2.839496E0,-3.0037317E0,-3.6950412E-1,2.0968044E0,6.0529046E0,-6.718201E-1,3.3349643E0,5.6284046E0,1.1588078E1,6.2369375E0,1.214753E1,1.649923E1,2.5550457E1,-4.303978E-1,-2.9095584E-1,-3.3357844E-1,-1.4582974E-1,-3.0077246E-1,-1.2275378E-1,-1.6613053E-1,7.812017E-2,-1.6727571E-1,-4.21588E-2,-7.344273E-2,2.2464832E-2,2.1737675E-1,6.611444E-2,2.2129326E-1,3.6285397E-1,-1.1748461E-1,1.8256301E-2,1.11187354E-1,2.260313E-1,1.8547782E-1,3.7834793E-1,4.9512053E-1,6.7112017E-1,1.9039027E-1,3.6364424E-1,5.116653E-1,7.846783E-1,6.379468E-1,9.1442376E-1,1.118307E0,1.5349993E0],"categories":[],"categories_nodes":[],"categories_segments":[],"categories_sizes":[],"default_left":[0,0,0,0,0,0,0,0,0,0,0,0,0,0,0,0,0,0,0,0,0,0,0,0,0,0,0,0,0,0,0,0,0,0,0,0,0,0,0,0,0,0,0,0,0,0,0,0,0,0,0,0,0,0,0,0,0,0,0,0,0,0,0],"id":15,"left_children":[1,3,5,7,9,11,13,15,17,19,21,23,25,27,29,31,33,35,37,39,41,43,45,47,49,51,53,55,57,59,61,-1,-1,-1,-1,-1,-1,-1,-1,-1,-1,-1,-1,-1,-1,-1,-1,-1,-1,-1,-1,-1,-1,-1,-1,-1,-1,-1,-1,-1,-1,-1,-1],"loss_changes":[7.106858E7,1.1911434E7,1.1916292E7,2.201424E6,2.4407622E6,2.838825E6,5.63266E6,5.52374E5,8.8026E5,1.2011026E6,3.0166275E5,1.261145E6,3.106485E5,3.970432E6,9.97112E5,2.15714E5,2.9625E5,2.99662E5,4.0552212E5,2.2214075E5,3.6693647E5,5.8350484E4,8.8999875E4,1.7428812E5,4.795865E5,4.1533156E4,1.245795E5,6.20936E5,1.430032E6,2.09704E5,3.25629E5,0E0,0E0,0E0,0E0,0E0,0E0,0E0,0E0,0E0,0E0,0E0,0E0,0E0,0E0,0E0,0E0,0E0,0E0,0E0,0E0,0E0,0E0,0E0,0E0,0E0,0E0,0E0,0E0,0E0,0E0,0E0,0E0],"parents":[2147483647,0,0,1,1,2,2,3,3,4,4,5,5,6,6,7,7,8,8,9,9,10,10,11,11,12,12,13,13,14,14,15,15,16,16,17,17,18,18,19,19,20,20,21,21,22,22,23,23,24,24,25,25,26,26,27,27,28,28,29,29,30,30],"right_children":[2,4,6,8,10,12,14,16,18,20,22,24,26,28,30,32,34,36,38,40,42,44,46,48,50,52,54,56,58,60,62,-1,-1,-1,-1,-1,-1,-1,-1,-1,-1,-1,-1,-1,-1,-1,-1,-1,-1,-1,-1,-1,-1,-1,-1,-1,-1,-1,-1,-1,-1,-1,-1],"split_conditions":[3.2E1,2.1821428E1,4.1E1,1.6142857E1,1E0,1E0,1E0,4.3388373E-1,4.3388373E-1,2.5E1,2.5E1,3E1,3E1,4.9E1,5.1E1,1E0,1E0,1E0,1E0,4.3388373E-1,2.8E1,4E0,2.8E1,2.7E1,6.123234E-17,2.7E1,6.123234E-17,4E1,4E1,4.1E1,4E1,-4.303978E-1,-2.9095584E-1,-3.3357844E-1,-1.4582974E-1,-3.0077246E-1,-1.2275378E-1,-1.6613053E-1,7.812017E-2,-1.6727571E-1,-4.21588E-2,-7.344273E-2,2.2464832E-2,2.1737675E-1,6.611444E-2,2.2129326E-1,3.6285397E-1,-1.1748461E-1,1.8256301E-2,1.11187354E-1,2.260313E-1,1.8547782E-1,3.7834793E-1,4.9512053E-1,6.7112017E-1,1.9039027E-1,3.6364424E-1,5.116653E-1,7.846783E-1,6.379468E-1,9.1442376E-1,1.118307E0,1.5349993E0],"split_indices":[21,33,22,29,1,1,1,15,15,21,21,22,22,21,21,1,1,1,1,15,22,2,22,20,14,22,14,21,32,21,32,0,0,0,0,0,0,0,0,0,0,0,0,0,0,0,0,0,0,0,0,0,0,0,0,0,0,0,0,0,0,0,0],"split_type":[0,0,0,0,0,0,0,0,0,0,0,0,0,0,0,0,0,0,0,0,0,0,0,0,0,0,0,0,0,0,0,0,0,0,0,0,0,0,0,0,0,0,0,0,0,0,0,0,0,0,0,0,0,0,0,0,0,0,0,0,0,0,0],"sum_hessian":[2.810488E6,1.786076E6,1.024412E6,9.98695E5,7.87381E5,5.15687E5,5.08725E5,5.446E5,4.54095E5,7.08465E5,7.8916E4,4.64183E5,5.1504E4,4.57457E5,5.1268E4,3.10673E5,2.33927E5,2.6341E5,1.90685E5,3.00827E5,4.07638E5,3.3475E4,4.5441E4,1.00172E5,3.64011E5,1.1172E4,4.0332E4,2.46761E5,2.10696E5,3.1369E4,1.9899E4,2.79877E5,3.0796E4,2.10585E5,2.3342E4,2.37151E5,2.6259E4,1.71827E5,1.8858E4,2.59738E5,4.1089E4,1.74008E5,2.3363E5,8.569E3,2.4906E4,1.9329E4,2.6112E4,3.8261E4,6.1911E4,1.87906E5,1.76105E5,5.616E3,5.556E3,2.1021E4,1.9311E4,7.3775E4,1.72986E5,1.36834E5,7.3862E4,1.0153E4,2.1216E4,1.2299E4,7.6E3],"tree_param":{"num_deleted":"0","num_feature":"51","num_nodes":"63","size_leaf_vector":"1"}},{"base_weights":[-4.1168297E-4,-3.3235552E0,6.8918314E0,-5.625118E0,-3.3028695E-1,4.4122806E0,1.1045995E1,-6.983023E0,-3.9743173E0,-2.0274744E0,1.9270492E0,3.6122918E0,1.1652163E1,9.930666E0,2.1117367E1,-8.18759E0,-6.20705E0,-5.180095E0,-2.369108E0,-2.5281012E0,2.4761555E0,1.2384869E0,8.122399E0,1.4970022E0,5.135004E0,8.435695E0,1.3961948E1,7.184995E0,1.2987593E1,1.7080526E1,2.5548632E1,-4.4378963E-1,-3.6336544E-1,-3.567036E-1,-2.487665E-1,-2.762613E-1,-1.0309068E-1,-1.4234646E-1,9.998972E-2,-1.8012337E-1,-7.606932E-2,4.5356404E-2,2.0140468E-1,-6.057036E-4,1.3052474E-1,3.103927E-1,5.108427E-1,5.1263012E-2,1.7161709E-1,1.5417917E-1,2.8763282E-1,3.855551E-1,5.6978846E-1,5.1583934E-1,7.382297E-1,1.599927E-1,4.099001E-1,5.43358E-1,8.141816E-1,5.209623E-1,9.225193E-1,1.1074673E0,1.4956714E0],"categories":[],"categories_nodes":[],"categories_segments":[],"categories_sizes":[],"default_left":[0,0,0,0,0,0,0,0,0,0,0,0,0,0,0,0,0,0,0,0,0,0,0,0,0,0,0,0,0,0,0,0,0,0,0,0,0,0,0,0,0,0,0,0,0,0,0,0,0,0,0,0,0,0,0,0,0,0,0,0,0,0,0],"id":16,"left_children":[1,3,5,7,9,11,13,15,17,19,21,23,25,27,29,31,33,35,37,39,41,43,45,47,49,51,53,55,57,59,61,-1,-1,-1,-1,-1,-1,-1,-1,-1,-1,-1,-1,-1,-1,-1,-1,-1,-1,-1,-1,-1,-1,-1,-1,-1,-1,-1,-1,-1,-1,-1,-1],"loss_changes":[6.433207E7,1.3055458E7,9.411668E6,2.401464E6,3.1558872E6,3.313982E6,3.836148E6,5.49374E5,9.358405E5,1.0601731E6,1.508125E6,1.659624E6,4.22865E5,2.580682E6,6.0866E5,1.4579E5,4.08176E5,2.971415E5,4.3297675E5,4.5769325E5,1.1454272E5,5.4593225E5,1.417355E5,1.9689544E5,3.795845E5,5.09575E4,9.67965E4,6.539185E5,1.016672E6,1.62425E5,2.40145E5,0E0,0E0,0E0,0E0,0E0,0E0,0E0,0E0,0E0,0E0,0E0,0E0,0E0,0E0,0E0,0E0,0E0,0E0,0E0,0E0,0E0,0E0,0E0,0E0,0E0,0E0,0E0,0E0,0E0,0E0,0E0,0E0],"parents":[2147483647,0,0,1,1,2,2,3,3,4,4,5,5,6,6,7,7,8,8,9,9,10,10,11,11,12,12,13,13,14,14,15,15,16,16,17,17,18,18,19,19,20,20,21,21,22,22,23,23,24,24,25,25,26,26,27,27,28,28,29,29,30,30],"right_children":[2,4,6,8,10,12,14,16,18,20,22,24,26,28,30,32,34,36,38,40,42,44,46,48,50,52,54,56,58,60,62,-1,-1,-1,-1,-1,-1,-1,-1,-1,-1,-1,-1,-1,-1,-1,-1,-1,-1,-1,-1,-1,-1,-1,-1,-1,-1,-1,-1,-1,-1,-1,-1],"split_conditions":[3.357143E1,2.2642857E1,4.6E1,1.6642857E1,4.3388373E-1,8.19E0,8.19E0,1.2285714E1,4.3388373E-1,8.19E0,8.19E0,3.6E1,3.6E1,5.2E1,5.2E1,4.3388373E-1,4.3388373E-1,8.19E0,8.19E0,2.7714285E1,2.7857143E1,2.8142857E1,2.8142857E1,0E0,3.7E1,0E0,3.6E1,4E1,6E1,3.9E1,5.9E1,-4.4378963E-1,-3.6336544E-1,-3.567036E-1,-2.487665E-1,-2.762613E-1,-1.0309068E-1,-1.4234646E-1,9.998972E-2,-1.8012337E-1,-7.606932E-2,4.5356404E-2,2.0140468E-1,-6.057036E-4,1.3052474E-1,3.103927E-1,5.108427E-1,5.1263012E-2,1.7161709E-1,1.5417917E-1,2.8763282E-1,3.855551E-1,5.6978846E-1,5.1583934E-1,7.382297E-1,1.599927E-1,4.099001E-1,5.43358E-1,8.141816E-1,5.209623E-1,9.225193E-1,1.1074673E0,1.4956714E0],"split_indices":[29,29,21,29,15,50,50,33,15,50,50,21,21,22,22,15,15,50,50,29,29,29,29,15,22,15,22,22,21,22,21,0,0,0,0,0,0,0,0,0,0,0,0,0,0,0,0,0,0,0,0,0,0,0,0,0,0,0,0,0,0,0,0],"split_type":[0,0,0,0,0,0,0,0,0,0,0,0,0,0,0,0,0,0,0,0,0,0,0,0,0,0,0,0,0,0,0,0,0,0,0,0,0,0,0,0,0,0,0,0,0,0,0,0,0,0,0,0,0,0,0,0,0,0,0,0,0,0,0],"sum_hessian":[2.808779E6,1.895062E6,9.13717E5,1.071314E6,8.23748E5,5.72189E5,3.41528E5,5.87801E5,4.83513E5,4.70215E5,3.53533E5,5.15256E5,5.6933E4,3.07479E5,3.4049E4,2.30296E5,3.57505E5,2.76108E5,2.07405E5,4.23175E5,4.704E4,3.18172E5,3.5361E4,2.15665E5,2.99591E5,2.3798E4,3.3135E4,1.61988E5,1.45491E5,1.782E4,1.6229E4,1.31757E5,9.8539E4,2.0398E5,1.53525E5,2.48593E5,2.7515E4,1.86958E5,2.0447E4,2.04708E5,2.18467E5,2.3392E4,2.3648E4,1.66451E5,1.51721E5,1.8476E4,1.6885E4,1.734E5,4.2265E4,6.933E4,2.30261E5,1.9121E4,4.677E3,5.982E3,2.7153E4,3.2832E4,1.29156E5,8.8537E4,5.6954E4,3.041E3,1.4779E4,9.127E3,7.102E3],"tree_param":{"num_deleted":"0","num_feature":"51","num_nodes":"63","size_leaf_vector":"1"}},{"base_weights":[-2.6276116E-3,-3.1227157E0,6.6265993E0,-5.317254E0,-2.4832907E-1,4.4553394E0,1.0688591E1,-6.6090207E0,-3.7064764E0,-1.8682382E0,1.9110631E0,3.6795518E0,1.1448968E1,9.621338E0,2.0310905E1,-7.847162E0,-5.9094715E0,-4.8722253E0,-2.163155E0,-2.342827E0,2.424863E0,1.2536972E0,7.805089E0,5.576413E0,2.186103E0,8.606106E0,1.3762371E1,6.116091E0,1.1729122E1,1.5091664E1,2.3443174E1,-4.5155248E-1,-3.6738762E-1,-3.1243828E-1,-1.4142893E-1,-2.6014408E-1,-9.292045E-2,-1.3125025E-1,1.01349376E-1,-1.682525E-1,-6.9699705E-2,4.0672332E-2,1.8907906E-1,-2.1436934E-3,1.2267832E-1,2.973831E-1,4.862201E-1,2.151496E-1,3.4982455E-1,2.7575603E-2,2.2693758E-1,3.4851545E-1,5.0939053E-1,5.865551E-1,7.6886743E-1,3.7217933E-1,1.1865872E-1,5.0610703E-1,7.575337E-1,8.538591E-1,4.7450995E-1,1.0478333E0,1.4000448E0],"categories":[],"categories_nodes":[],"categories_segments":[],"categories_sizes":[],"default_left":[0,0,0,0,0,0,0,0,0,0,0,0,0,0,0,0,0,0,0,0,0,0,0,0,0,0,0,0,0,0,0,0,0,0,0,0,0,0,0,0,0,0,0,0,0,0,0,0,0,0,0,0,0,0,0,0,0,0,0,0,0,0,0],"id":17,"left_children":[1,3,5,7,9,11,13,15,17,19,21,23,25,27,29,31,33,35,37,39,41,43,45,47,49,51,53,55,57,59,61,-1,-1,-1,-1,-1,-1,-1,-1,-1,-1,-1,-1,-1,-1,-1,-1,-1,-1,-1,-1,-1,-1,-1,-1,-1,-1,-1,-1,-1,-1,-1,-1],"loss_changes":[5.810934E7,1.2050172E7,7.929708E6,2.253974E6,2.8930475E6,3.178881E6,3.216072E6,5.20644E5,8.673575E5,9.6281875E5,1.3735002E6,1.4940745E6,3.846435E5,2.082846E6,5.10817E5,1.28251E5,4.01526E5,2.73687E5,4.0148156E5,4.1271225E5,1.0283753E5,4.9616134E5,1.267485E5,4.201005E5,1.1347856E6,6.78495E4,1.056275E5,5.2600925E5,9.67858E5,1.3029675E5,2.20845E5,0E0,0E0,0E0,0E0,0E0,0E0,0E0,0E0,0E0,0E0,0E0,0E0,0E0,0E0,0E0,0E0,0E0,0E0,0E0,0E0,0E0,0E0,0E0,0E0,0E0,0E0,0E0,0E0,0E0,0E0,0E0,0E0],"parents":[2147483647,0,0,1,1,2,2,3,3,4,4,5,5,6,6,7,7,8,8,9,9,10,10,11,11,12,12,13,13,14,14,15,15,16,16,17,17,18,18,19,19,20,20,21,21,22,22,23,23,24,24,25,25,26,26,27,27,28,28,29,29,30,30],"right_children":[2,4,6,8,10,12,14,16,18,20,22,24,26,28,30,32,34,36,38,40,42,44,46,48,50,52,54,56,58,60,62,-1,-1,-1,-1,-1,-1,-1,-1,-1,-1,-1,-1,-1,-1,-1,-1,-1,-1,-1,-1,-1,-1,-1,-1,-1,-1,-1,-1,-1,-1,-1,-1],"split_conditions":[3.3785713E1,2.2785715E1,4.7E1,1.6785715E1,4.3388373E-1,8.19E0,8.19E0,1.2071428E1,4.3388373E-1,8.19E0,8.19E0,4E0,3.7E1,4.7E1,4.7E1,9.571428E0,8.19E0,8.19E0,8.19E0,2.7857143E1,2.7571428E1,2.7857143E1,2.8142857E1,3.85E1,4.2785713E1,-1.6081226E-16,-3.546049E-1,3E0,6E1,3E0,5.9E1,-4.5155248E-1,-3.6738762E-1,-3.1243828E-1,-1.4142893E-1,-2.6014408E-1,-9.292045E-2,-1.3125025E-1,1.01349376E-1,-1.682525E-1,-6.9699705E-2,4.0672332E-2,1.8907906E-1,-2.1436934E-3,1.2267832E-1,2.973831E-1,4.862201E-1,2.151496E-1,3.4982455E-1,2.7575603E-2,2.2693758E-1,3.4851545E-1,5.0939053E-1,5.865551E-1,7.6886743E-1,3.7217933E-1,1.1865872E-1,5.0610703E-1,7.575337E-1,8.538591E-1,4.7450995E-1,1.0478333E0,1.4000448E0],"split_indices":[29,29,22,33,15,50,50,29,15,50,50,2,22,20,20,33,50,50,50,29,29,29,29,29,29,18,18,2,23,2,23,0,0,0,0,0,0,0,0,0,0,0,0,0,0,0,0,0,0,0,0,0,0,0,0,0,0,0,0,0,0,0,0],"split_type":[0,0,0,0,0,0,0,0,0,0,0,0,0,0,0,0,0,0,0,0,0,0,0,0,0,0,0,0,0,0,0,0,0,0,0,0,0,0,0,0,0,0,0,0,0,0,0,0,0,0,0,0,0,0,0,0,0,0,0,0,0,0,0],"sum_hessian":[2.809415E6,1.910314E6,8.99101E5,1.083263E6,8.27051E5,5.85914E5,3.13187E5,6.01159E5,4.82104E5,4.72555E5,3.54496E5,5.27411E5,5.8503E4,2.8192E5,3.1267E4,2.17028E5,3.84131E5,2.74647E5,2.07457E5,4.25516E5,4.7039E4,3.18927E5,3.5569E4,2.32326E5,2.95085E5,2.625E4,3.2253E4,1.05867E5,1.76053E5,1.1729E4,1.9538E4,6.4384E4,1.52644E5,3.46023E5,3.8108E4,2.47493E5,2.7154E4,1.86861E5,2.0596E4,2.04835E5,2.20681E5,2.1502E4,2.5537E4,1.53287E5,1.6564E5,1.8078E4,1.7491E4,1.2249E5,1.09836E5,1.74114E5,1.20971E5,1.2907E4,1.3343E4,1.4289E4,1.7964E4,7.8149E4,2.7718E4,1.19794E5,5.6259E4,8.658E3,3.071E3,1.2645E4,6.893E3],"tree_param":{"num_deleted":"0","num_feature":"51","num_nodes":"63","size_leaf_vector":"1"}},{"base_weights":[-4.517843E-3,-3.2188532E0,5.80904E0,-5.356455E0,-8.4302783E-1,3.1867158E0,9.110589E0,-6.6716275E0,-4.1952543E0,-2.3197887E0,1.1249036E0,2.497346E0,9.341844E0,8.140619E0,1.7849712E1,-7.7079196E0,-5.8927813E0,-4.907975E0,-2.4154015E0,-2.7476985E0,1.5490627E0,5.305055E-1,6.4645696E0,9.416257E-1,3.848538E0,6.9481573E0,1.1403911E1,5.9936104E0,1.0870255E1,1.3935566E1,2.112756E1,-3.9670032E-1,-2.8150567E-1,-3.1102723E-1,-1.4772269E-1,-2.6120165E-1,-1.0307534E-1,-1.4205351E-1,7.414966E-2,-1.9687866E-1,-9.211187E-2,-6.8034143E-3,1.4928132E-1,-4.2518258E-2,8.507595E-2,2.1724784E-1,4.0906477E-1,2.4490142E-2,1.3276267E-1,9.2175096E-2,2.1459065E-1,3.1055275E-1,4.8627615E-1,3.6311194E-1,5.959064E-1,1.6990174E-1,3.5976228E-1,4.3833628E-1,7.06773E-1,7.841999E-1,5.0363344E-1,8.7744254E-1,1.2292203E0],"categories":[],"categories_nodes":[],"categories_segments":[],"categories_sizes":[],"default_left":[0,0,0,0,0,0,0,0,0,0,0,0,0,0,0,0,0,0,0,0,0,0,0,0,0,0,0,0,0,0,0,0,0,0,0,0,0,0,0,0,0,0,0,0,0,0,0,0,0,0,0,0,0,0,0,0,0,0,0,0,0,0,0],"id":18,"left_children":[1,3,5,7,9,11,13,15,17,19,21,23,25,27,29,31,33,35,37,39,41,43,45,47,49,51,53,55,57,59,61,-1,-1,-1,-1,-1,-1,-1,-1,-1,-1,-1,-1,-1,-1,-1,-1,-1,-1,-1,-1,-1,-1,-1,-1,-1,-1,-1,-1,-1,-1,-1,-1],"loss_changes":[5.2501604E7,9.18832E6,8.66058E6,1.454404E6,2.4902132E6,2.3656065E6,3.753472E6,3.60388E5,6.41605E5,8.104235E5,1.1659146E6,1.0539042E6,2.77084E5,2.335832E6,5.67279E5,8.9969E4,2.45527E5,3.24911E5,2.4000175E5,4.748775E5,1.18019164E5,5.3451006E5,1.3385738E5,1.80436E5,2.3847025E5,5.314425E4,6.4154E4,6.958165E5,1.205148E6,1.36037E5,2.97389E5,0E0,0E0,0E0,0E0,0E0,0E0,0E0,0E0,0E0,0E0,0E0,0E0,0E0,0E0,0E0,0E0,0E0,0E0,0E0,0E0,0E0,0E0,0E0,0E0,0E0,0E0,0E0,0E0,0E0,0E0,0E0,0E0],"parents":[2147483647,0,0,1,1,2,2,3,3,4,4,5,5,6,6,7,7,8,8,9,9,10,10,11,11,12,12,13,13,14,14,15,15,16,16,17,17,18,18,19,19,20,20,21,21,22,22,23,23,24,24,25,25,26,26,27,27,28,28,29,29,30,30],"right_children":[2,4,6,8,10,12,14,16,18,20,22,24,26,28,30,32,34,36,38,40,42,44,46,48,50,52,54,56,58,60,62,-1,-1,-1,-1,-1,-1,-1,-1,-1,-1,-1,-1,-1,-1,-1,-1,-1,-1,-1,-1,-1,-1,-1,-1,-1,-1,-1,-1,-1,-1,-1,-1],"split_conditions":[3.2285713E1,2.1071428E1,4.3E1,1.5E1,4.3388373E-1,1E0,1E0,0E0,7.818315E-1,1E0,1E0,3.5E1,3.5E1,5E1,4.7E1,1E0,1E0,1E0,1E0,2.5857143E1,2.6142857E1,2.6142857E1,2.6E1,0E0,3.3E1,0E0,3.1E1,3.9E1,5.8E1,1.1E1,5.4E1,-3.9670032E-1,-2.8150567E-1,-3.1102723E-1,-1.4772269E-1,-2.6120165E-1,-1.0307534E-1,-1.4205351E-1,7.414966E-2,-1.9687866E-1,-9.211187E-2,-6.8034143E-3,1.4928132E-1,-4.2518258E-2,8.507595E-2,2.1724784E-1,4.0906477E-1,2.4490142E-2,1.3276267E-1,9.2175096E-2,2.1459065E-1,3.1055275E-1,4.8627615E-1,3.6311194E-1,5.959064E-1,1.6990174E-1,3.5976228E-1,4.3833628E-1,7.06773E-1,7.841999E-1,5.0363344E-1,8.7744254E-1,1.2292203E0],"split_indices":[25,29,21,29,15,1,1,15,15,1,1,21,21,20,20,1,1,1,1,29,29,29,29,15,20,15,20,20,21,38,21,0,0,0,0,0,0,0,0,0,0,0,0,0,0,0,0,0,0,0,0,0,0,0,0,0,0,0,0,0,0,0,0],"split_type":[0,0,0,0,0,0,0,0,0,0,0,0,0,0,0,0,0,0,0,0,0,0,0,0,0,0,0,0,0,0,0,0,0,0,0,0,0,0,0,0,0,0,0,0,0,0,0,0,0,0,0,0,0,0,0,0,0,0,0,0,0,0,0],"sum_hessian":[2.809565E6,1.809234E6,1.000331E6,9.52363E5,8.56871E5,5.57515E5,4.42816E5,4.46572E5,5.05791E5,4.89525E5,3.67346E5,5.01364E5,5.6151E4,3.98579E5,4.4237E4,1.91613E5,2.54959E5,3.61165E5,1.44626E5,4.40774E5,4.8751E4,3.30551E5,3.6795E4,2.33045E5,2.68319E5,2.5988E4,3.0163E4,2.23101E5,1.75478E5,2.0164E4,2.4073E4,1.72807E5,1.8806E4,2.29372E5,2.5587E4,3.2507E5,3.6095E4,1.30389E5,1.4237E4,1.90471E5,2.50303E5,2.2435E4,2.6316E4,1.51684E5,1.78867E5,1.6467E4,2.0328E4,1.84421E5,4.8624E4,4.8581E4,2.19738E5,2.054E4,5.448E3,3.333E3,2.683E4,7.0602E4,1.52499E5,1.06726E5,6.8752E4,1.3879E4,6.285E3,1.1831E4,1.2242E4],"tree_param":{"num_deleted":"0","num_feature":"51","num_nodes":"63","size_leaf_vector":"1"}},{"base_weights":[2.0208529E-3,-2.7485142E0,6.154409E0,-4.780944E0,-1.2820219E-1,4.0968876E0,9.829042E0,-5.9365897E0,-3.2704225E0,-2.1117258E0,1.3588783E0,3.3935616E0,1.0425774E1,8.847538E0,1.862521E1,-6.4927917E0,-4.548101E0,-4.711897E0,-2.1881187E0,-2.5257006E0,1.6013975E0,7.7842575E-1,6.561224E0,1.6293899E0,4.753815E0,7.73811E0,1.2485998E1,6.2427907E0,1.140289E1,1.51520605E1,2.262492E1,-3.7512675E-1,-2.9338834E-1,-3.215686E-1,-1.9715546E-1,-2.4962167E-1,-1.0796034E-1,-1.2953188E-1,7.3034935E-2,-1.7069763E-1,-8.682182E-2,1.3856675E-2,1.3889448E-1,-1.5481593E-2,9.707641E-2,2.431339E-1,4.1313574E-1,6.0213696E-2,1.6502288E-1,1.7114829E-1,2.7957433E-1,3.5224035E-1,5.233257E-1,5.2689576E-1,6.860096E-1,1.4466457E-1,3.6317337E-1,4.8851943E-1,7.554559E-1,5.19059E-1,8.37609E-1,9.707034E-1,1.3374512E0],"categories":[],"categories_nodes":[],"categories_segments":[],"categories_sizes":[],"default_left":[0,0,0,0,0,0,0,0,0,0,0,0,0,0,0,0,0,0,0,0,0,0,0,0,0,0,0,0,0,0,0,0,0,0,0,0,0,0,0,0,0,0,0,0,0,0,0,0,0,0,0,0,0,0,0,0,0,0,0,0,0,0,0],"id":19,"left_children":[1,3,5,7,9,11,13,15,17,19,21,23,25,27,29,31,33,35,37,39,41,43,45,47,49,51,53,55,57,59,61,-1,-1,-1,-1,-1,-1,-1,-1,-1,-1,-1,-1,-1,-1,-1,-1,-1,-1,-1,-1,-1,-1,-1,-1,-1,-1,-1,-1,-1,-1,-1,-1],"loss_changes":[4.754946E7,1.0341039E7,6.56334E6,1.90892E6,2.5019302E6,2.477105E6,2.690012E6,4.7844E5,7.39484E5,5.58662E5,1.4638618E6,1.2018805E6,3.080925E5,1.865756E6,4.34158E5,2.79132E5,2.01872E5,1.455565E5,3.97631E5,2.29232E5,5.679717E4,5.519101E5,1.4058725E5,1.5489819E5,3.152455E5,4.5616125E4,7.5603E4,4.74574E5,8.55994E5,1.276495E5,1.91952E5,0E0,0E0,0E0,0E0,0E0,0E0,0E0,0E0,0E0,0E0,0E0,0E0,0E0,0E0,0E0,0E0,0E0,0E0,0E0,0E0,0E0,0E0,0E0,0E0,0E0,0E0,0E0,0E0,0E0,0E0,0E0,0E0],"parents":[2147483647,0,0,1,1,2,2,3,3,4,4,5,5,6,6,7,7,8,8,9,9,10,10,11,11,12,12,13,13,14,14,15,15,16,16,17,17,18,18,19,19,20,20,21,21,22,22,23,23,24,24,25,25,26,26,27,27,28,28,29,29,30,30],"right_children":[2,4,6,8,10,12,14,16,18,20,22,24,26,28,30,32,34,36,38,40,42,44,46,48,50,52,54,56,58,60,62,-1,-1,-1,-1,-1,-1,-1,-1,-1,-1,-1,-1,-1,-1,-1,-1,-1,-1,-1,-1,-1,-1,-1,-1,-1,-1,-1,-1,-1,-1,-1,-1],"split_conditions":[3.4285713E1,2.2928572E1,4.7E1,1.7E1,0E0,1E0,1E0,7.818315E-1,0E0,1E0,1E0,3.7E1,3.7E1,5.2E1,5.3E1,1.2357142E1,1.1071428E1,1E0,1E0,2.8E1,2.8E1,2.85E1,2.8357143E1,0E0,0E0,0E0,0E0,4.1E1,5.7142857E1,4.2E1,4.2E1,-3.7512675E-1,-2.9338834E-1,-3.215686E-1,-1.9715546E-1,-2.4962167E-1,-1.0796034E-1,-1.2953188E-1,7.3034935E-2,-1.7069763E-1,-8.682182E-2,1.3856675E-2,1.3889448E-1,-1.5481593E-2,9.707641E-2,2.431339E-1,4.1313574E-1,6.0213696E-2,1.6502288E-1,1.7114829E-1,2.7957433E-1,3.5224035E-1,5.233257E-1,5.2689576E-1,6.860096E-1,1.4466457E-1,3.6317337E-1,4.8851943E-1,7.554559E-1,5.19059E-1,8.37609E-1,9.707034E-1,1.3374512E0],"split_indices":[29,29,21,29,15,1,1,15,15,1,1,21,21,22,22,29,29,1,1,29,29,29,29,15,15,15,15,22,29,22,28,0,0,0,0,0,0,0,0,0,0,0,0,0,0,0,0,0,0,0,0,0,0,0,0,0,0,0,0,0,0,0,0],"split_type":[0,0,0,0,0,0,0,0,0,0,0,0,0,0,0,0,0,0,0,0,0,0,0,0,0,0,0,0,0,0,0,0,0,0,0,0,0,0,0,0,0,0,0,0,0,0,0,0,0,0,0,0,0,0,0,0,0,0,0,0,0,0,0],"sum_hessian":[2.809858E6,1.94176E6,8.68098E5,1.093552E6,8.48208E5,5.56501E5,3.11597E5,6.19552E5,4.74E5,3.63439E5,4.84769E5,5.00844E5,5.5657E4,2.8032E5,3.1277E4,4.42351E5,1.77201E5,2.0327E5,2.7073E5,3.26984E5,3.6455E4,4.36111E5,4.8658E4,2.18049E5,2.82795E5,2.4153E4,3.1504E4,1.3882E5,1.415E5,1.6743E4,1.4534E4,1.69121E5,2.7323E5,4.3082E4,1.34119E5,1.83142E5,2.0128E4,2.43832E5,2.6898E4,1.53843E5,1.73141E5,1.7151E4,1.9304E4,2.25325E5,2.10786E5,2.4352E4,2.4306E4,1.73829E5,4.422E4,1.09242E5,1.73553E5,1.9262E4,4.891E3,1.2222E4,1.9282E4,3.2423E4,1.06397E5,9.8234E4,4.3266E4,4.207E3,1.2536E4,8.175E3,6.359E3],"tree_param":{"num_deleted":"0","num_feature":"51","num_nodes":"63","size_leaf_vector":"1"}},{"base_weights":[-9.880564E-4,-2.6760068E0,5.704644E0,-4.6267543E0,-2.8478628E-1,3.6741152E0,9.113066E0,-5.825605E0,-3.390317E0,-1.6895337E0,1.5861292E0,3.0113688E0,9.596401E0,8.191763E0,1.7322641E1,-7.39015E0,-5.403617E0,-3.7339694E0,-2.6987255E-1,-2.0964322E0,1.9625523E0,1.0230327E0,6.6508565E0,1.5027609E0,4.4561357E0,7.571884E0,1.2041817E1,5.752301E0,1.0803811E1,1.337734E1,2.0830643E1,-4.1995963E-1,-3.4958357E-1,-2.842113E-1,-1.4368217E-1,-2.2148097E-1,-1.3332395E-1,-6.842286E-2,7.0531696E-2,-1.5305366E-1,-6.592881E-2,1.4818645E-2,1.4945225E-1,-4.3492243E-3,1.060585E-1,2.4850808E-1,4.1564876E-1,2.3162385E-2,1.1899181E-1,1.7168878E-1,2.846641E-1,3.331749E-1,5.0019807E-1,5.2856284E-1,6.906866E-1,1.2881131E-1,3.3099002E-1,4.543595E-1,7.005669E-1,4.4597444E-1,7.384267E-1,9.4238704E-1,1.2946566E0],"categories":[],"categories_nodes":[],"categories_segments":[],"categories_sizes":[],"default_left":[0,0,0,0,0,0,0,0,0,0,0,0,0,0,0,0,0,0,0,0,0,0,0,0,0,0,0,0,0,0,0,0,0,0,0,0,0,0,0,0,0,0,0,0,0,0,0,0,0,0,0,0,0,0,0,0,0,0,0,0,0,0,0],"id":20,"left_children":[1,3,5,7,9,11,13,15,17,19,21,23,25,27,29,31,33,35,37,39,41,43,45,47,49,51,53,55,57,59,61,-1,-1,-1,-1,-1,-1,-1,-1,-1,-1,-1,-1,-1,-1,-1,-1,-1,-1,-1,-1,-1,-1,-1,-1,-1,-1,-1,-1,-1,-1,-1,-1],"loss_changes":[4.289545E7,8.925392E6,6.208544E6,1.561968E6,2.2593035E6,2.2064815E6,2.532922E6,3.5318E5,5.562775E5,7.2963675E5,1.0513745E6,1.101979E6,2.80019E5,1.918646E6,4.67392E5,4.5636E4,2.99124E5,3.469945E5,9.501182E4,3.3148262E5,8.418284E4,4.0441284E5,1.0300025E5,2.2550106E5,3.26631E5,6.8323375E4,6.66225E4,4.289845E5,8.00532E5,9.85195E4,1.7905E5,0E0,0E0,0E0,0E0,0E0,0E0,0E0,0E0,0E0,0E0,0E0,0E0,0E0,0E0,0E0,0E0,0E0,0E0,0E0,0E0,0E0,0E0,0E0,0E0,0E0,0E0,0E0,0E0,0E0,0E0,0E0,0E0],"parents":[2147483647,0,0,1,1,2,2,3,3,4,4,5,5,6,6,7,7,8,8,9,9,10,10,11,11,12,12,13,13,14,14,15,15,16,16,17,17,18,18,19,19,20,20,21,21,22,22,23,23,24,24,25,25,26,26,27,27,28,28,29,29,30,30],"right_children":[2,4,6,8,10,12,14,16,18,20,22,24,26,28,30,32,34,36,38,40,42,44,46,48,50,52,54,56,58,60,62,-1,-1,-1,-1,-1,-1,-1,-1,-1,-1,-1,-1,-1,-1,-1,-1,-1,-1,-1,-1,-1,-1,-1,-1,-1,-1,-1,-1,-1,-1,-1,-1],"split_conditions":[3.3857143E1,2.2428572E1,4.6E1,1.6E1,4.3388373E-1,1E0,1E0,1.0607142E1,1E0,1E0,1E0,3.7E1,3.8E1,5.2E1,5.1E1,8.785714E0,1E0,7.818315E-1,7.818315E-1,2.7321428E1,2.6607143E1,2.7857143E1,2.7857143E1,6.123234E-17,6.123234E-17,0E0,6.123234E-17,4.1E1,4.3E1,4.1E1,5.6964287E1,-4.1995963E-1,-3.4958357E-1,-2.842113E-1,-1.4368217E-1,-2.2148097E-1,-1.3332395E-1,-6.842286E-2,7.0531696E-2,-1.5305366E-1,-6.592881E-2,1.4818645E-2,1.4945225E-1,-4.3492243E-3,1.060585E-1,2.4850808E-1,4.1564876E-1,2.3162385E-2,1.1899181E-1,1.7168878E-1,2.846641E-1,3.331749E-1,5.0019807E-1,5.2856284E-1,6.906866E-1,1.2881131E-1,3.3099002E-1,4.543595E-1,7.005669E-1,4.4597444E-1,7.384267E-1,9.4238704E-1,1.2946566E0],"split_indices":[25,33,22,21,15,1,1,33,1,1,1,22,22,21,21,33,1,15,15,33,33,25,33,14,14,15,14,21,28,21,33,0,0,0,0,0,0,0,0,0,0,0,0,0,0,0,0,0,0,0,0,0,0,0,0,0,0,0,0,0,0,0,0],"split_type":[0,0,0,0,0,0,0,0,0,0,0,0,0,0,0,0,0,0,0,0,0,0,0,0,0,0,0,0,0,0,0,0,0,0,0,0,0,0,0,0,0,0,0,0,0,0,0,0,0,0,0,0,0,0,0,0,0,0,0,0,0,0,0],"sum_hessian":[2.810479E6,1.913403E6,8.97076E5,1.053754E6,8.59649E5,5.62171E5,3.34905E5,5.35007E5,5.18747E5,4.90994E5,3.68655E5,5.05593E5,5.6578E4,3.01115E5,3.379E4,1.13645E5,4.21362E5,4.67285E5,5.1462E4,4.41774E5,4.922E4,3.3177E5,3.6885E4,2.47333E5,2.5826E5,3.0955E4,2.5623E4,1.55703E5,1.45412E5,1.5906E4,1.7884E4,3.2168E4,8.1477E4,3.79292E5,4.207E4,2.82915E5,1.8437E5,3.1119E4,2.0343E4,1.97208E5,2.44566E5,1.8764E4,3.0456E4,1.64993E5,1.66777E5,1.8342E4,1.8543E4,1.13186E5,1.34147E5,1.41407E5,1.16853E5,2.254E4,8.415E3,1.4006E4,1.1617E4,3.3405E4,1.22298E5,9.4722E4,5.069E4,3.785E3,1.2121E4,1.2854E4,5.03E3],"tree_param":{"num_deleted":"0","num_feature":"51","num_nodes":"63","size_leaf_vector":"1"}},{"base_weights":[-3.2015769E-3,-2.9714096E0,4.659538E0,-5.0872707E0,-1.326921E0,2.1682932E0,7.484353E0,-6.2306757E0,-4.389263E0,-1.7236619E0,2.247894E0,1.6017942E0,7.259865E0,6.6643662E0,1.48511715E1,-5.76077E0,-7.403541E0,-3.5967777E0,-5.4349976E0,-2.9722002E0,-8.0009705E-1,3.8396257E-1,3.6183915E0,2.1135513E-1,2.6928608E0,5.1391354E0,8.894303E0,4.8306317E0,9.210987E0,1.1924985E1,1.8311863E1,-3.5178313E-1,-2.646372E-1,-3.789397E-1,-2.9019466E-1,-1.964623E-1,-2.9465545E-2,-2.8371114E-1,-1.6364214E-1,-1.9639307E-1,-1.1028377E-1,-9.376626E-2,3.2865852E-2,-5.4243248E-2,7.857555E-2,9.331795E-2,2.8299898E-1,-4.4286076E-2,4.6094276E-2,9.35654E-2,1.9477175E-1,1.7473195E-1,3.102177E-1,3.929247E-1,5.424651E-1,8.0413245E-2,2.727941E-1,3.781413E-1,6.1671495E-1,3.6314628E-1,6.459419E-1,7.936125E-1,1.131545E0],"categories":[],"categories_nodes":[],"categories_segments":[],"categories_sizes":[],"default_left":[0,0,0,0,0,0,0,0,0,0,0,0,0,0,0,0,0,0,0,0,0,0,0,0,0,0,0,0,0,0,0,0,0,0,0,0,0,0,0,0,0,0,0,0,0,0,0,0,0,0,0,0,0,0,0,0,0,0,0,0,0,0,0],"id":21,"left_children":[1,3,5,7,9,11,13,15,17,19,21,23,25,27,29,31,33,35,37,39,41,43,45,47,49,51,53,55,57,59,61,-1,-1,-1,-1,-1,-1,-1,-1,-1,-1,-1,-1,-1,-1,-1,-1,-1,-1,-1,-1,-1,-1,-1,-1,-1,-1,-1,-1,-1,-1,-1,-1],"loss_changes":[3.8871412E7,5.971386E6,7.688052E6,5.98962E5,1.3695528E6,1.6744025E6,3.092502E6,1.5675E5,3.86191E5,1.00225575E6,2.4641712E5,7.9250025E5,2.0141675E5,2.151274E6,5.19045E5,1.211595E5,2.2768E4,2.650865E5,1.039005E5,2.707155E5,7.829195E5,7.130013E4,1.9883088E5,1.790425E5,2.89181E5,4.4297562E4,6.63815E4,5.396155E5,9.92666E5,1.286545E5,2.471605E5,0E0,0E0,0E0,0E0,0E0,0E0,0E0,0E0,0E0,0E0,0E0,0E0,0E0,0E0,0E0,0E0,0E0,0E0,0E0,0E0,0E0,0E0,0E0,0E0,0E0,0E0,0E0,0E0,0E0,0E0,0E0,0E0],"parents":[2147483647,0,0,1,1,2,2,3,3,4,4,5,5,6,6,7,7,8,8,9,9,10,10,11,11,12,12,13,13,14,14,15,15,16,16,17,17,18,18,19,19,20,20,21,21,22,22,23,23,24,24,25,25,26,26,27,27,28,28,29,29,30,30],"right_children":[2,4,6,8,10,12,14,16,18,20,22,24,26,28,30,32,34,36,38,40,42,44,46,48,50,52,54,56,58,60,62,-1,-1,-1,-1,-1,-1,-1,-1,-1,-1,-1,-1,-1,-1,-1,-1,-1,-1,-1,-1,-1,-1,-1,-1,-1,-1,-1,-1,-1,-1,-1,-1],"split_conditions":[3.1E1,1.8571428E1,4.1E1,1.3E1,1E0,1E0,1E0,5E0,4E0,2.3E1,2.3E1,3.3E1,3.3E1,5E1,4.9E1,9.821428E0,1E0,1E0,1E0,2.3931566E-1,3.546049E-1,2.3931566E-1,2.3931566E-1,2.8E1,-1.6081226E-16,2.8E1,2.3931566E-1,3.7E1,5.9E1,3.7E1,5.8E1,-3.5178313E-1,-2.646372E-1,-3.789397E-1,-2.9019466E-1,-1.964623E-1,-2.9465545E-2,-2.8371114E-1,-1.6364214E-1,-1.9639307E-1,-1.1028377E-1,-9.376626E-2,3.2865852E-2,-5.4243248E-2,7.857555E-2,9.331795E-2,2.8299898E-1,-4.4286076E-2,4.6094276E-2,9.35654E-2,1.9477175E-1,1.7473195E-1,3.102177E-1,3.929247E-1,5.424651E-1,8.0413245E-2,2.727941E-1,3.781413E-1,6.1671495E-1,3.6314628E-1,6.459419E-1,7.936125E-1,1.131545E0],"split_indices":[23,29,21,29,1,1,1,2,2,23,23,21,21,22,22,33,1,1,1,18,18,18,18,21,18,21,18,22,21,22,21,0,0,0,0,0,0,0,0,0,0,0,0,0,0,0,0,0,0,0,0,0,0,0,0,0,0,0,0,0,0,0,0],"split_type":[0,0,0,0,0,0,0,0,0,0,0,0,0,0,0,0,0,0,0,0,0,0,0,0,0,0,0,0,0,0,0,0,0,0,0,0,0,0,0,0,0,0,0,0,0,0,0,0,0,0,0,0,0,0,0,0,0,0,0,0,0,0,0],"sum_hessian":[2.80863E6,1.716158E6,1.092472E6,7.50515E5,9.65643E5,5.80512E5,5.1196E5,2.84488E5,4.66027E5,8.6918E5,9.6463E4,5.22391E5,5.8121E4,4.60684E5,5.1276E4,2.03116E5,8.1372E4,2.65118E5,2.00909E5,3.69569E5,4.99611E5,4.0874E4,5.5589E4,2.29685E5,2.92706E5,2.5299E4,3.2822E4,2.67831E5,1.92853E5,2.7786E4,2.349E4,5.4539E4,1.48577E5,7.3334E4,8.038E3,2.38727E5,2.6391E4,1.80893E5,2.0016E4,1.64489E5,2.0508E5,2.87502E5,2.12109E5,1.8273E4,2.2601E4,2.9917E4,2.5672E4,9.0284E4,1.39401E5,1.73904E5,1.18802E5,9.947E3,1.5352E4,2.1458E4,1.1364E4,4.3524E4,2.24307E5,1.2624E5,6.6613E4,4.884E3,2.2902E4,1.5014E4,8.476E3],"tree_param":{"num_deleted":"0","num_feature":"51","num_nodes":"63","size_leaf_vector":"1"}},{"base_weights":[-9.1497716E-4,-2.830063E0,4.455464E0,-4.5918045E0,-1.054614E0,2.1240985E0,7.149501E0,-5.687997E0,-3.7723873E0,-1.4484494E0,2.4872267E0,1.585309E0,6.98263E0,6.3683176E0,1.4132182E1,-6.3217635E0,-4.7974906E0,-4.0492296E0,-1.2692708E0,-2.8091502E0,-7.564938E-1,7.541491E-1,3.6338193E0,-3.0118114E-1,2.389601E0,4.122251E0,8.216241E0,4.8210545E0,8.934022E0,1.1803988E1,1.803633E1,-3.262055E-1,-2.2430797E-1,-2.5470537E-1,-1.076185E-1,-2.3319204E-1,-1.770694E-1,-7.950538E-3,-9.739356E-2,-1.0917598E-1,-1.8599711E-1,2.2209723E-2,-9.295591E-2,8.834746E-2,-3.3631243E-2,2.7510592E-1,9.8093085E-2,-6.892305E-2,1.3205326E-2,1.7280392E-1,9.057196E-2,8.7713294E-2,2.3579244E-1,3.2649255E-1,4.4939876E-1,2.9971597E-1,1.3218586E-1,3.6564353E-1,6.197666E-1,6.7546767E-1,4.2984954E-1,7.654084E-1,1.124027E0],"categories":[],"categories_nodes":[],"categories_segments":[],"categories_sizes":[],"default_left":[0,0,0,0,0,0,0,0,0,0,0,0,0,0,0,0,0,0,0,0,0,0,0,0,0,0,0,0,0,0,0,0,0,0,0,0,0,0,0,0,0,0,0,0,0,0,0,0,0,0,0,0,0,0,0,0,0,0,0,0,0,0,0],"id":22,"left_children":[1,3,5,7,9,11,13,15,17,19,21,23,25,27,29,31,33,35,37,39,41,43,45,47,49,51,53,55,57,59,61,-1,-1,-1,-1,-1,-1,-1,-1,-1,-1,-1,-1,-1,-1,-1,-1,-1,-1,-1,-1,-1,-1,-1,-1,-1,-1,-1,-1,-1,-1,-1,-1],"loss_changes":[3.5410364E7,5.373581E6,6.850154E6,7.7454E5,1.1935575E6,1.530531E6,2.759866E6,2.08143E5,3.419425E5,7.2501625E5,1.7014356E5,7.985785E5,2.0591625E5,1.806478E6,4.6253E5,8.001E4,1.2032025E5,1.38665E5,3.702439E4,1.47905E5,6.7579375E5,4.9268266E4,1.6095756E5,9.580459E4,2.275175E5,2.4715375E4,5.301175E4,7.251685E5,9.60509E5,1.743155E5,2.30216E5,0E0,0E0,0E0,0E0,0E0,0E0,0E0,0E0,0E0,0E0,0E0,0E0,0E0,0E0,0E0,0E0,0E0,0E0,0E0,0E0,0E0,0E0,0E0,0E0,0E0,0E0,0E0,0E0,0E0,0E0,0E0,0E0],"parents":[2147483647,0,0,1,1,2,2,3,3,4,4,5,5,6,6,7,7,8,8,9,9,10,10,11,11,12,12,13,13,14,14,15,15,16,16,17,17,18,18,19,19,20,20,21,21,22,22,23,23,24,24,25,25,26,26,27,27,28,28,29,29,30,30],"right_children":[2,4,6,8,10,12,14,16,18,20,22,24,26,28,30,32,34,36,38,40,42,44,46,48,50,52,54,56,58,60,62,-1,-1,-1,-1,-1,-1,-1,-1,-1,-1,-1,-1,-1,-1,-1,-1,-1,-1,-1,-1,-1,-1,-1,-1,-1,-1,-1,-1,-1,-1,-1,-1],"split_conditions":[3.1E1,2E1,4.1E1,1.425E1,1E0,1E0,1E0,4.3388373E-1,1E0,2.2E1,2.3E1,3E1,3E1,5.1E1,5.1E1,1E0,1E0,1.7428572E1,4E0,3E0,3E0,3E0,3E0,2.5E1,3E0,2.3E1,-2.4492937E-16,3E0,6E1,3E0,5.8E1,-3.262055E-1,-2.2430797E-1,-2.5470537E-1,-1.076185E-1,-2.3319204E-1,-1.770694E-1,-7.950538E-3,-9.739356E-2,-1.0917598E-1,-1.8599711E-1,2.2209723E-2,-9.295591E-2,8.834746E-2,-3.3631243E-2,2.7510592E-1,9.8093085E-2,-6.892305E-2,1.3205326E-2,1.7280392E-1,9.057196E-2,8.7713294E-2,2.3579244E-1,3.2649255E-1,4.4939876E-1,2.9971597E-1,1.3218586E-1,3.6564353E-1,6.197666E-1,6.7546767E-1,4.2984954E-1,7.654084E-1,1.124027E0],"split_indices":[20,22,22,33,1,1,1,15,1,20,20,22,22,20,20,1,1,33,2,2,2,2,2,22,2,22,13,2,22,2,22,0,0,0,0,0,0,0,0,0,0,0,0,0,0,0,0,0,0,0,0,0,0,0,0,0,0,0,0,0,0,0,0],"split_type":[0,0,0,0,0,0,0,0,0,0,0,0,0,0,0,0,0,0,0,0,0,0,0,0,0,0,0,0,0,0,0,0,0,0,0,0,0,0,0,0,0,0,0,0,0,0,0,0,0,0,0,0,0,0,0,0,0,0,0,0,0,0,0],"sum_hessian":[2.808616E6,1.717962E6,1.090654E6,8.62309E5,8.55653E5,5.84683E5,5.05971E5,3.68857E5,4.93452E5,7.7003E5,8.5623E4,5.26318E5,5.8365E4,4.55063E5,5.0908E4,2.15489E5,1.53368E5,4.44311E5,4.9141E4,2.59578E5,5.10452E5,3.4093E4,5.153E4,1.5732E5,3.68998E5,1.7588E4,4.0777E4,2.83874E5,1.71189E5,3.1893E4,1.9015E4,1.94091E5,2.1398E4,1.37903E5,1.5465E4,2.0102E5,2.43291E5,1.8642E4,3.0499E4,1.5388E5,1.05698E5,2.4436E5,2.66092E5,1.9939E4,1.4154E4,2.4335E4,2.7195E4,5.4141E4,1.03179E5,1.29717E5,2.39281E5,3.526E3,1.4062E4,1.2805E4,2.7972E4,1.8447E5,9.9404E4,1.16587E5,5.4602E4,2.0819E4,1.1074E4,1.1785E4,7.23E3],"tree_param":{"num_deleted":"0","num_feature":"51","num_nodes":"63","size_leaf_vector":"1"}},{"base_weights":[9.954008E-4,-2.161889E0,5.296479E0,-3.8656764E0,4.806417E-2,3.316572E0,7.9250274E0,-4.874386E0,-2.6186485E0,1.3259059E0,-1.65958E0,1.8413905E0,5.610705E0,6.7522593E0,1.4046535E1,-5.5378976E0,-3.9920886E0,-3.5674086E0,-1.3568041E0,8.478174E-1,5.6470866E0,-1.9965076E0,1.3669417E0,1.3507587E0,6.294334E0,4.931068E0,1.1743493E1,6.0130854E0,1.3414317E1,1.2202014E1,1.954973E1,-3.401467E-1,-2.604762E-1,-2.1418302E-1,-6.8752356E-2,-1.90736E-1,-6.650393E-2,-8.523579E-2,8.990889E-2,-4.291064E-3,8.899963E-2,2.1119793E-1,3.5258526E-1,-1.3610151E-1,-6.8198755E-2,1.4513529E-2,1.13282815E-1,1.1575998E-1,1.9357732E-2,3.865047E-1,2.430085E-1,3.5655302E-1,2.101777E-1,5.3848296E-1,7.714471E-1,2.3389272E-1,3.848588E-1,5.730779E-1,7.9388183E-1,5.608977E-1,1.0533204E0,9.150509E-1,1.546355E0],"categories":[],"categories_nodes":[],"categories_segments":[],"categories_sizes":[],"default_left":[0,0,0,0,0,0,0,0,0,0,0,0,0,0,0,0,0,0,0,0,0,0,0,0,0,0,0,0,0,0,0,0,0,0,0,0,0,0,0,0,0,0,0,0,0,0,0,0,0,0,0,0,0,0,0,0,0,0,0,0,0,0,0],"id":23,"left_children":[1,3,5,7,9,11,13,15,17,19,21,23,25,27,29,31,33,35,37,39,41,43,45,47,49,51,53,55,57,59,61,-1,-1,-1,-1,-1,-1,-1,-1,-1,-1,-1,-1,-1,-1,-1,-1,-1,-1,-1,-1,-1,-1,-1,-1,-1,-1,-1,-1,-1,-1,-1,-1],"loss_changes":[3.2188458E7,7.51314E6,4.241398E6,1.417268E6,1.8954912E6,1.5731635E6,2.513582E6,3.64619E5,6.031875E5,1.0264515E6,3.7913412E5,6.1811356E5,7.58222E5,1.446935E6,5.71188E5,1.47647E5,2.040065E5,1.5912825E5,2.3736316E5,3.89345E5,9.8908125E4,1.5352962E5,3.603835E4,2.368384E5,5.7780375E4,2.62101E5,6.4971E4,5.94731E5,1.409805E5,3.67573E5,2.0018E5,0E0,0E0,0E0,0E0,0E0,0E0,0E0,0E0,0E0,0E0,0E0,0E0,0E0,0E0,0E0,0E0,0E0,0E0,0E0,0E0,0E0,0E0,0E0,0E0,0E0,0E0,0E0,0E0,0E0,0E0,0E0,0E0],"parents":[2147483647,0,0,1,1,2,2,3,3,4,4,5,5,6,6,7,7,8,8,9,9,10,10,11,11,12,12,13,13,14,14,15,15,16,16,17,17,18,18,19,19,20,20,21,21,22,22,23,23,24,24,25,25,26,26,27,27,28,28,29,29,30,30],"right_children":[2,4,6,8,10,12,14,16,18,20,22,24,26,28,30,32,34,36,38,40,42,44,46,48,50,52,54,56,58,60,62,-1,-1,-1,-1,-1,-1,-1,-1,-1,-1,-1,-1,-1,-1,-1,-1,-1,-1,-1,-1,-1,-1,-1,-1,-1,-1,-1,-1,-1,-1,-1,-1],"split_conditions":[3.5142857E1,2.3357143E1,4.3388373E-1,1.7035715E1,4E0,4.5714287E1,3.9E1,4.3388373E-1,4.3388373E-1,8.19E0,8.19E0,8.19E0,8.19E0,8.19E0,6.0535713E1,1.0714286E1,8.19E0,8.19E0,8.19E0,7.818315E-1,7.818315E-1,2.85E1,2.8357143E1,5E0,5E0,1E0,5.7142857E1,3.1E1,3.1E1,8.19E0,8.19E0,-3.401467E-1,-2.604762E-1,-2.1418302E-1,-6.8752356E-2,-1.90736E-1,-6.650393E-2,-8.523579E-2,8.990889E-2,-4.291064E-3,8.899963E-2,2.1119793E-1,3.5258526E-1,-1.3610151E-1,-6.8198755E-2,1.4513529E-2,1.13282815E-1,1.1575998E-1,1.9357732E-2,3.865047E-1,2.430085E-1,3.5655302E-1,2.101777E-1,5.3848296E-1,7.714471E-1,2.3389272E-1,3.848588E-1,5.730779E-1,7.9388183E-1,5.608977E-1,1.0533204E0,9.150509E-1,1.546355E0],"split_indices":[29,29,15,33,2,29,32,15,15,50,50,50,50,50,33,29,50,50,50,15,15,29,29,2,2,2,29,32,32,50,50,0,0,0,0,0,0,0,0,0,0,0,0,0,0,0,0,0,0,0,0,0,0,0,0,0,0,0,0,0,0,0,0],"split_type":[0,0,0,0,0,0,0,0,0,0,0,0,0,0,0,0,0,0,0,0,0,0,0,0,0,0,0,0,0,0,0,0,0,0,0,0,0,0,0,0,0,0,0,0,0,0,0,0,0,0,0,0,0,0,0,0,0,0,0,0,0,0,0],"sum_hessian":[2.810353E6,1.995367E6,8.14986E5,1.126714E6,8.68653E5,4.64849E5,3.50137E5,6.22874E5,5.0384E5,4.96854E5,3.71799E5,2.82924E5,1.81925E5,2.93844E5,5.6293E4,3.55513E5,2.67361E5,2.87598E5,2.16242E5,4.4736E5,4.9494E4,3.34555E5,3.7244E4,2.54846E5,2.8078E4,1.63777E5,1.8148E4,2.64499E5,2.9345E4,4.2164E4,1.4129E4,7.3261E4,2.82252E5,2.40559E5,2.6802E4,2.58971E5,2.8627E4,1.94765E5,2.1477E4,2.23505E5,2.23855E5,2.4587E4,2.4907E4,1.55822E5,1.78733E5,1.6945E4,2.0299E4,1.27367E5,1.27479E5,1.4029E4,1.4049E4,4.0698E4,1.23079E5,1.4358E4,3.79E3,1.47532E5,1.16967E5,1.6372E4,1.2973E4,3.7953E4,4.211E3,1.2734E4,1.395E3],"tree_param":{"num_deleted":"0","num_feature":"51","num_nodes":"63","size_leaf_vector":"1"}},{"base_weights":[-1.6860974E-3,-2.5158908E0,4.110125E0,-4.34165E0,-1.0827768E0,2.3567936E0,7.0631304E0,-5.4890428E0,-3.7846537E0,-1.4303629E0,2.0347505E0,1.8502312E0,6.922335E0,6.3293405E0,1.3604379E1,-6.704527E0,-5.151823E0,-4.0394387E0,-1.4803904E0,-2.4099739E0,-4.3426788E-1,3.0553062E0,-5.2387124E-1,6.6462237E-1,3.058535E0,8.395237E0,3.2501545E0,4.526475E0,8.424231E0,1.547864E1,8.900874E0,-3.632533E-1,-3.1708547E-1,-2.68962E-1,-1.5408306E-1,-2.2818601E-1,-1.743556E-1,-3.917706E-2,-1.613953E-1,-1.6635276E-1,-8.772888E-2,-5.7673227E-2,3.2636736E-2,8.506476E-2,2.3109587E-1,-8.5500136E-2,4.620477E-2,-1.476856E-2,7.971167E-2,1.0884067E-1,2.1389358E-1,3.5324964E-1,5.1300186E-1,1.00396715E-1,2.524962E-1,1.5252988E-1,2.6564547E-1,3.6521408E-1,6.1229676E-1,7.129426E-1,1.1519235E0,3.842052E-1,5.6761587E-1],"categories":[],"categories_nodes":[],"categories_segments":[],"categories_sizes":[],"default_left":[0,0,0,0,0,0,0,0,0,0,0,0,0,0,0,0,0,0,0,0,0,0,0,0,0,0,0,0,0,0,0,0,0,0,0,0,0,0,0,0,0,0,0,0,0,0,0,0,0,0,0,0,0,0,0,0,0,0,0,0,0,0,0],"id":24,"left_children":[1,3,5,7,9,11,13,15,17,19,21,23,25,27,29,31,33,35,37,39,41,43,45,47,49,51,53,55,57,59,61,-1,-1,-1,-1,-1,-1,-1,-1,-1,-1,-1,-1,-1,-1,-1,-1,-1,-1,-1,-1,-1,-1,-1,-1,-1,-1,-1,-1,-1,-1,-1,-1],"loss_changes":[2.9046196E7,4.562049E6,5.51989E6,4.89999E5,1.0584896E6,1.5470622E6,1.906324E6,1.026705E5,3.03035E5,8.575505E5,2.5586166E5,8.625959E5,3.613215E5,1.348726E6,3.530155E5,1.10205E4,9.2331E4,1.34573E5,6.258153E4,2.663095E5,3.406572E5,1.4857425E5,4.798794E4,2.712258E5,3.2060225E5,1.18209E5,4.2752312E4,2.2276375E5,7.069E5,2.638095E5,3.3967812E4,0E0,0E0,0E0,0E0,0E0,0E0,0E0,0E0,0E0,0E0,0E0,0E0,0E0,0E0,0E0,0E0,0E0,0E0,0E0,0E0,0E0,0E0,0E0,0E0,0E0,0E0,0E0,0E0,0E0,0E0,0E0,0E0],"parents":[2147483647,0,0,1,1,2,2,3,3,4,4,5,5,6,6,7,7,8,8,9,9,10,10,11,11,12,12,13,13,14,14,15,15,16,16,17,17,18,18,19,19,20,20,21,21,22,22,23,23,24,24,25,25,26,26,27,27,28,28,29,29,30,30],"right_children":[2,4,6,8,10,12,14,16,18,20,22,24,26,28,30,32,34,36,38,40,42,44,46,48,50,52,54,56,58,60,62,-1,-1,-1,-1,-1,-1,-1,-1,-1,-1,-1,-1,-1,-1,-1,-1,-1,-1,-1,-1,-1,-1,-1,-1,-1,-1,-1,-1,-1,-1,-1,-1],"split_conditions":[2.2E1,1.8714285E1,4.357143E1,1.2571428E1,1E0,1E0,1E0,9.357142E0,1E0,2.5E1,1E0,3.6E1,1E0,5.1E1,1E0,8.392858E0,1E0,1.6E1,1E0,6.123234E-17,6.123234E-17,2.55E1,2.5642857E1,6.123234E-17,6.123234E-17,2.7E1,3.7642857E1,-5E-1,4.5E1,5.8214287E1,5.2714287E1,-3.632533E-1,-3.1708547E-1,-2.68962E-1,-1.5408306E-1,-2.2818601E-1,-1.743556E-1,-3.917706E-2,-1.613953E-1,-1.6635276E-1,-8.772888E-2,-5.7673227E-2,3.2636736E-2,8.506476E-2,2.3109587E-1,-8.5500136E-2,4.620477E-2,-1.476856E-2,7.971167E-2,1.0884067E-1,2.1389358E-1,3.5324964E-1,5.1300186E-1,1.00396715E-1,2.524962E-1,1.5252988E-1,2.6564547E-1,3.6521408E-1,6.1229676E-1,7.129426E-1,1.1519235E0,3.842052E-1,5.6761587E-1],"split_indices":[32,29,29,33,1,1,1,33,1,23,48,22,48,22,48,33,1,22,48,14,14,29,33,14,14,32,29,14,28,29,29,0,0,0,0,0,0,0,0,0,0,0,0,0,0,0,0,0,0,0,0,0,0,0,0,0,0,0,0,0,0,0,0],"split_type":[0,0,0,0,0,0,0,0,0,0,0,0,0,0,0,0,0,0,0,0,0,0,0,0,0,0,0,0,0,0,0,0,0,0,0,0,0,0,0,0,0,0,0,0,0,0,0,0,0,0,0,0,0,0,0,0,0,0,0,0,0,0,0],"sum_hessian":[2.809669E6,1.743556E6,1.066113E6,7.66741E5,9.76815E5,6.68937E5,3.97176E5,2.50569E5,5.16172E5,8.78831E5,9.7984E4,6.0213E5,6.6807E4,3.57117E5,4.0059E4,5.4415E4,1.96154E5,4.6478E5,5.1392E4,4.43081E5,4.3575E5,7.0045E4,2.7939E4,3.0392E5,2.9821E5,4.7681E4,1.9126E4,1.91938E5,1.65179E5,2.8643E4,1.1416E4,2.1374E4,3.3041E4,1.76737E5,1.9417E4,2.3844E5,2.2634E5,3.6742E4,1.465E4,1.84671E5,2.5841E5,2.62242E5,1.73508E5,3.7573E4,3.2472E4,1.5358E4,1.2581E4,1.49517E5,1.54403E5,1.73066E5,1.25144E5,2.7832E4,1.9849E4,1.1317E4,7.809E3,6.6724E4,1.25214E5,1.27746E5,3.7433E4,2.4666E4,3.977E3,7.632E3,3.784E3],"tree_param":{"num_deleted":"0","num_feature":"51","num_nodes":"63","size_leaf_vector":"1"}},{"base_weights":[-1.5418315E-3,-2.1554112E0,4.3349795E0,-3.5483353E0,-1.978957E-1,2.7982228E0,7.0747914E0,-4.478598E0,-2.5092726E0,5.403195E-1,-2.0383031E0,3.7963219E0,2.9533944E-1,8.493259E0,3.5226047E0,-4.0246334E0,-5.6177926E0,-1.90641E0,-4.016561E0,1.389409E-1,4.149952E0,-2.3246524E0,5.3419834E-1,3.24514E0,8.745225E0,-9.6322216E-2,3.8136415E0,7.7246194E0,1.5331994E1,2.9555516E0,8.648938E0,-2.1358018E-1,-9.0233736E-2,-3.0496752E-1,-2.5166368E-1,-1.0953895E-1,3.288481E-2,-2.1066645E-1,-1.1154448E-1,-1.8635519E-2,6.188315E-2,1.6438861E-1,2.8575882E-1,-1.5158127E-1,-8.6299725E-2,-2.9866839E-2,6.995665E-2,1.16247214E-1,2.1680787E-1,3.6950284E-1,5.173995E-1,-6.0858663E-2,4.5423876E-2,1.24143295E-1,2.802498E-1,3.4566757E-1,6.4796245E-1,7.0955396E-1,1.1287719E0,9.200084E-2,2.0611854E-1,3.7390032E-1,5.523457E-1],"categories":[],"categories_nodes":[],"categories_segments":[],"categories_sizes":[],"default_left":[0,0,0,0,0,0,0,0,0,0,0,0,0,0,0,0,0,0,0,0,0,0,0,0,0,0,0,0,0,0,0,0,0,0,0,0,0,0,0,0,0,0,0,0,0,0,0,0,0,0,0,0,0,0,0,0,0,0,0,0,0,0,0],"id":25,"left_children":[1,3,5,7,9,11,13,15,17,19,21,23,25,27,29,31,33,35,37,39,41,43,45,47,49,51,53,55,57,59,61,-1,-1,-1,-1,-1,-1,-1,-1,-1,-1,-1,-1,-1,-1,-1,-1,-1,-1,-1,-1,-1,-1,-1,-1,-1,-1,-1,-1,-1,-1,-1,-1],"loss_changes":[2.624149E7,5.118361E6,3.925544E6,1.060094E6,1.0602831E6,1.492164E6,1.68808E6,2.99235E5,4.7076E5,8.0699006E5,1.6457931E5,1.164787E6,2.3465727E5,1.258414E6,2.779005E5,2.26851E5,4.63815E4,2.698345E5,5.1996E4,2.8178897E5,7.5199875E4,8.5082375E4,2.190325E4,3.8574025E5,9.287075E4,1.7257684E5,4.06505E4,9.13943E5,1.995895E5,1.12046875E5,2.6653875E4,0E0,0E0,0E0,0E0,0E0,0E0,0E0,0E0,0E0,0E0,0E0,0E0,0E0,0E0,0E0,0E0,0E0,0E0,0E0,0E0,0E0,0E0,0E0,0E0,0E0,0E0,0E0,0E0,0E0,0E0,0E0,0E0],"parents":[2147483647,0,0,1,1,2,2,3,3,4,4,5,5,6,6,7,7,8,8,9,9,10,10,11,11,12,12,13,13,14,14,15,15,16,16,17,17,18,18,19,19,20,20,21,21,22,22,23,23,24,24,25,25,26,26,27,27,28,28,29,29,30,30],"right_children":[2,4,6,8,10,12,14,16,18,20,22,24,26,28,30,32,34,36,38,40,42,44,46,48,50,52,54,56,58,60,62,-1,-1,-1,-1,-1,-1,-1,-1,-1,-1,-1,-1,-1,